float W[1][512][1] = {{{-0.018895412}, {-0.007520554}, {-0.15546317}, {-0.08769827}, {-0.24295925}, {-0.04553929}, {-0.18166246}, {0.19330719}, {-0.11057811}, {0.018411463}, {-0.10804984}, {-0.009440237}, {0.18208022}, {0.105359815}, {0.047417782}, {0.15643834}, {-0.13478668}, {0.10212216}, {-0.22849463}, {0.021949265}, {-0.058176443}, {0.1948304}, {-0.03476259}, {0.061936185}, {0.15005209}, {0.06507984}, {-0.011652044}, {0.091536246}, {-0.12492458}, {0.08643548}, {0.036992908}, {-0.109621875}, {-0.061208807}, {0.15715072}, {0.05312068}, {-0.036810648}, {0.040944446}, {-0.07969543}, {0.06719273}, {0.16552946}, {0.12832645}, {0.07000669}, {0.06426685}, {-0.13322611}, {-0.102781914}, {0.052854642}, {0.16469559}, {0.05195795}, {0.116889976}, {-0.123847626}, {-0.061006222}, {0.17407726}, {-0.093478456}, {-0.0947042}, {0.11707818}, {0.0002522853}, {0.052771155}, {-0.23184642}, {0.020699536}, {-0.16044328}, {-0.053474557}, {-0.15864734}, {-0.15885192}, {0.11171396}, {-0.04909723}, {0.04268854}, {-0.08574019}, {-0.057203013}, {0.060855933}, {0.173947}, {0.091163054}, {-0.07555651}, {0.21774922}, {-0.1270577}, {0.12408836}, {0.062934555}, {0.14957093}, {-0.043711774}, {-0.063482665}, {-0.0088892095}, {-0.18370025}, {-0.14083631}, {-0.15934514}, {-0.13201973}, {-0.076329045}, {-0.030440232}, {-0.1492772}, {-0.18747261}, {0.00520677}, {0.04868843}, {-0.11776184}, {-0.079841316}, {0.12716413}, {-0.09053166}, {0.05755253}, {0.024261154}, {0.086770296}, {-0.020377}, {-0.084893756}, {0.081121966}, {0.018955732}, {0.022935648}, {0.014531232}, {0.05148375}, {0.025600635}, {-0.11941178}, {0.18526737}, {-0.060104366}, {0.11053291}, {0.08737057}, {0.012603601}, {0.049309716}, {-0.002551231}, {-0.06272741}, {-0.048218444}, {-0.0068981326}, {-0.04864134}, {0.18793952}, {-0.08037737}, {0.093771264}, {0.008018682}, {0.07519867}, {0.102354385}, {-0.14228521}, {0.13142708}, {-0.005774357}, {-0.01101613}, {-0.14490715}, {-0.056813356}, {-0.0517273}, {-0.09033862}, {-0.084036686}, {-0.20599432}, {-0.08008593}, {-0.22178552}, {0.0898013}, {-0.07767007}, {0.048618995}, {-0.13289687}, {0.023895694}, {0.13083513}, {0.08443412}, {0.05934012}, {0.1867953}, {-0.054043494}, {0.06680193}, {-0.25844315}, {0.02860051}, {0.002293476}, {0.2034472}, {-0.055111874}, {0.092119835}, {0.022730539}, {0.14662917}, {0.09306104}, {0.0477152}, {-0.13225962}, {0.07892385}, {0.06570003}, {-0.10241541}, {-0.10883737}, {0.055992566}, {0.17586522}, {0.040494595}, {0.13263686}, {0.04221228}, {0.01394149}, {-0.024595879}, {0.07888863}, {0.076607056}, {0.14365962}, {-0.09974322}, {-0.043081053}, {0.18640724}, {0.14488477}, {0.015300379}, {0.04598168}, {0.039290447}, {-0.035241608}, {0.08851632}, {-0.03738066}, {-0.122438185}, {0.04873376}, {0.060251128}, {0.00057458854}, {-0.2919587}, {-0.12653157}, {-0.010299852}, {-0.10851348}, {-0.071871795}, {-0.17183775}, {0.10536738}, {-0.059973557}, {-0.031290386}, {-0.07800385}, {-0.10073173}, {0.08983945}, {0.1353344}, {0.11068603}, {-0.052729324}, {0.25154138}, {-0.102869704}, {0.048012767}, {0.08778958}, {0.17453079}, {-0.0019281671}, {-0.0035551095}, {-0.044994812}, {-0.14802353}, {-0.20533344}, {-0.07893207}, {-0.18395598}, {-0.015561409}, {0.055487674}, {-0.124851555}, {-0.110332295}, {-0.034931395}, {0.06522235}, {-0.13391265}, {-0.06309983}, {0.18660451}, {-0.034156255}, {0.017382722}, {-0.009748409}, {0.05305626}, {0.089581974}, {-0.077679016}, {0.17852049}, {0.059355035}, {0.07596617}, {0.029643405}, {0.025030946}, {-0.027422383}, {-0.18190521}, {0.21351607}, {-0.04363345}, {0.04035562}, {0.008853419}, {-0.07443339}, {0.065015174}, {0.087635025}, {-0.1064751}, {-0.10163116}, {0.12946083}, {0.12666349}, {0.16611423}, {0.031264618}, {0.058591638}, {0.0016795842}, {0.068662904}, {0.06892465}, {-0.017490864}, {0.11024973}, {-0.09417599}, {-0.010159873}, {-0.18166558}, {-0.014955483}, {-0.08260317}, {-0.026030969}, {0.065418564}, {-0.03210808}, {0.030120052}, {-0.043580525}, {0.029632583}, {-0.07024392}, {0.028802536}, {-0.017591529}, {0.07388202}, {-0.07007887}, {0.032833792}, {0.022271879}, {0.021339715}, {0.05716721}, {-0.07070155}, {-0.0069946274}, {0.008747578}, {-0.037420984}, {-0.06579457}, {-0.029547226}, {0.04063987}, {-0.084007874}, {-0.0036309958}, {0.088160776}, {-0.010457791}, {0.011263557}, {-0.023821332}, {0.08595892}, {-0.06292419}, {0.071408026}, {0.005163409}, {-0.08303232}, {-0.019282803}, {-0.033843443}, {-0.08440782}, {-0.01681044}, {0.046655573}, {-0.017991617}, {0.054990865}, {0.024413034}, {-0.05344237}, {0.07108907}, {-0.0076251626}, {0.00072072446}, {-0.0810901}, {0.044610284}, {0.01975128}, {-0.005850069}, {0.005424045}, {-0.03670416}, {-0.08696504}, {0.07755292}, {0.07311485}, {-0.07552785}, {0.07132625}, {-0.07930115}, {-0.029055025}, {0.025607295}, {0.030648164}, {0.010342129}, {-0.043117784}, {-0.017264947}, {0.06460843}, {0.084981464}, {-0.018073298}, {-0.08027609}, {-0.003008157}, {0.0692608}, {-0.07866505}, {0.071837075}, {-0.010364987}, {0.069468}, {-0.04380024}, {0.08258665}, {0.0010250881}, {-0.019660532}, {-0.03540782}, {-0.059150193}, {0.08511726}, {0.05312135}, {-0.06801422}, {0.048754252}, {0.0012582839}, {-0.08396796}, {0.06897708}, {0.049443416}, {-0.03648599}, {0.07065479}, {-0.073296025}, {0.075877704}, {-0.020842165}, {-0.012525693}, {-0.07138791}, {0.013265215}, {-0.016242318}, {-0.082604416}, {-0.067854}, {0.036174826}, {0.083122574}, {-0.04514234}, {-0.08155591}, {0.016456343}, {0.057645895}, {0.07836751}, {-0.03511377}, {0.05298189}, {-0.08704697}, {0.08364206}, {0.006900668}, {-0.085283525}, {0.015855663}, {0.005040966}, {-0.07827395}, {-0.010211505}, {-0.024391621}, {0.07170414}, {0.02729766}, {0.05565285}, {0.02414912}, {0.010119088}, {0.03231757}, {0.014734857}, {-0.064195216}, {0.06792892}, {-0.039650973}, {0.44342116}, {-0.43866268}, {-0.38602388}, {-0.44084918}, {0.377686}, {1.054006e-08}, {0.33783373}, {0.36428452}, {-0.2975169}, {0.44663277}, {2.4368348e-11}, {-0.36109188}, {-0.43411282}, {0.4133271}, {0.3885528}, {0.4257963}, {0.42287752}, {-6.501167e-10}, {0.40335077}, {-0.37778142}, {0.4125292}, {-0.35917014}, {0.4233157}, {0.4426218}, {-8.5166256e-11}, {9.352774e-05}, {-1.7431696e-10}, {-0.00013622874}, {-0.34678137}, {7.9293627e-10}, {0.45018816}, {0.34691405}, {0.40836653}, {5.3773175e-10}, {-8.0849727e-10}, {8.45111e-11}, {-0.40201017}, {1.6255655e-09}, {-0.41927612}, {3.0902607e-09}, {0.38623703}, {-0.3793966}, {7.094886e-05}, {-6.207417e-11}, {3.1007035e-05}, {-1.1343197e-05}, {4.837093e-10}, {0.40447438}, {-3.250289e-05}, {-4.7107398e-05}, {0.43939465}, {-0.28871897}, {1.1313085e-10}, {-0.400959}, {0.39455456}, {0.00028898605}, {0.4279827}, {-0.32045585}, {-4.2119452e-10}, {0.00017305129}, {-1.602827e-09}, {-0.4269722}, {-0.41797876}, {0.42299244}, {0.34060845}, {0.406894}, {2.851113e-10}, {0.31807187}, {0.43028218}, {0.39102465}, {8.6720314e-10}, {0.00019730533}, {0.40982428}, {-0.41375613}, {-0.43421862}, {2.6507447e-11}, {-5.58375e-10}, {-0.44298804}, {-0.39067796}, {0.33373785}, {0.3664071}, {0.27022037}, {-1.6021455e-09}, {-0.38007087}, {-0.42902243}, {-0.40120262}, {0.40222844}, {0.42828363}, {0.44567204}, {1.6723157e-09}, {-0.4360005}, {-1.1131503e-09}, {0.23903693}, {2.2501899e-10}, {-8.714009e-10}, {0.42446518}, {-1.3914825e-09}, {1.02118584e-10}, {-0.4226682}, {-2.7036362e-09}, {-0.38082063}, {-1.3183193e-09}, {-0.4097691}, {0.25142238}, {-8.2167323e-10}, {0.38215455}, {-0.3909072}, {2.3768638e-11}, {0.35885632}, {-1.7773422e-09}, {-0.4451736}, {1.2040557e-11}, {1.4268393e-09}, {4.4718854e-11}, {1.6648993e-10}, {1.2379497e-09}, {1.789772e-05}, {0.39815775}, {-2.5235733e-05}, {1.0151611e-09}, {-0.4314637}, {-0.38143826}, {-0.21138774}, {2.830591e-09}, {7.8497536e-10}, {1.6042597e-09}, {-0.3944772}, {0.41762736}}};

float R[1][512][128] = {{{0.017496116, -0.08265176, -0.06518163, -0.07772037, -0.007919058, -0.082302436, 0.0592392, 0.079562224, 0.03658258, 0.08034662, 0.006696999, -0.016609505, -0.08270092, -0.003132619, -0.013138689, 0.07746897, 0.076841526, 0.054409765, -0.049958926, 0.043107815, -0.044730216, -0.038459882, -0.03533304, -0.08767436, -0.03330763, -0.02593033, -0.02654164, -0.065201245, -0.08539237, 0.05268269, -0.05819066, 0.074004225, -0.08511423, -0.014155701, 0.018194422, -0.04612114, 0.07443871, 0.07809945, 0.043153547, -0.08438885, 0.03957189, 0.06610618, -0.056724884, 0.018963777, 0.07095034, -0.0006117597, 0.050455265, 0.054197572, 0.016318135, 0.018137306, 0.055243157, -0.024962798, 0.032548144, -0.08070213, 0.08057178, -0.055760257, 0.03864225, -0.010839492, -0.04666654, 0.08218063, -0.06680813, -0.04964045, 0.07553432, 0.047792725, -0.05996781, 0.046924017, 0.04102344, -0.039886028, -0.029709999, -0.06807405, -0.037303373, -0.028717808, -0.045228384, -0.066167116, 0.005141929, 0.040572457, 0.08295638, -0.04881981, -0.028643988, 0.07678389, 0.036477603, -0.05575613, 0.006135136, 0.07104812, 0.032991834, 0.060468845, 0.011926159, 0.015246183, 0.043568067, -0.07361952, 0.05214759, 0.054262526, -0.023164138, 0.08097311, -0.040274262, 0.07608246, -0.010681495, 0.08796885, 0.060471438, -0.07098135, -0.057110317, -0.08116453, 0.07578362, -0.00942976, -0.08802899, -0.05732608, 0.024788909, 0.0678926, -0.018412448, -0.079391, 0.06030009, -0.021954, 0.06357286, -0.050594054, 0.051077895, -0.025568262, -0.075555936, 0.016535565, 0.064179994, 0.017305292, 0.05924902, 0.037408493, -0.028196443, 0.05856482, 0.03293658, -0.07950878, -0.012731865, 0.028415903}, {-0.06294824, 0.023914456, 0.022751935, -0.08225658, 0.07135352, 0.037782677, 0.026798397, -0.028956361, -0.0067024305, -0.07625494, -0.018241964, -0.07362723, -0.03753282, -0.08586699, -0.05104704, -0.051678643, -0.04787215, 0.06245903, -0.008757643, -0.0035744458, -0.05707092, -0.046970617, 0.01007203, -0.018959105, -0.022037394, -0.079427265, 0.018379942, 0.00319843, 0.028679527, -0.0028226376, -0.048573166, -0.07092616, 0.04486502, 0.0018777773, 0.04912836, 0.04923012, 0.03222312, 0.08398991, 0.057882823, -0.023214355, -0.0034416392, 0.031455807, 0.013655022, 0.0019083023, -0.0050375164, -0.04140953, -0.08592066, -0.05918259, 0.008263387, -0.002356127, 0.07149915, 0.035532154, -0.05237576, 0.026597045, -0.007316284, 0.048615374, -0.07358769, 0.05458904, -0.039254077, -0.028685693, 0.053303562, 0.07394295, 0.0026697293, 0.05304245, 0.0002554655, 0.027639166, -0.009849526, 0.059349827, -0.00040058792, 0.03950598, -0.034007028, -0.042701058, -0.021413773, -0.011611469, 0.04364448, -0.027874462, -0.026868109, -0.004445277, 0.06541725, 0.075366475, 0.015941538, -0.07839572, -0.021651141, 0.055258326, 0.027780697, -0.037080217, -0.024394318, -0.0033100545, 0.012073405, -0.06662764, 0.06472955, 0.06943678, 0.03928464, -0.07862099, 0.0031827614, -0.046314307, 0.041556038, 0.082838975, 0.0362086, -0.057794582, 0.082601674, 0.08101631, 0.00925222, -0.006488949, 0.0408035, 0.032235943, 0.08046543, -0.0029469356, -0.03971847, -0.010711767, 0.04625722, 0.0041886494, -0.05731695, -0.033580173, 0.004986793, 0.013687961, -0.06356319, 0.074226506, -0.035922475, -0.03458265, -0.009327985, 0.022885107, 0.085526966, -0.05296057, 0.07837237, -0.072421096, 0.03593029, -0.05697653}, {0.015849978, -0.025880627, -0.034048878, 0.00804276, 0.0012268946, 0.074147604, -0.016104177, -0.08273167, 0.029301614, -0.015765913, 0.07527972, -0.04932728, -0.01474417, -0.069746, -0.05924752, -0.086780496, 0.040590547, 0.06426675, 0.061387427, 0.08700458, 0.03407011, 0.0511949, 0.0453879, 0.08701957, 0.07385559, -0.027837306, -0.07833146, 0.023307353, -0.04297435, 0.08222174, 7.021427e-05, -0.0056269914, 0.040871195, -0.029275328, 0.0049569756, 0.05502083, -0.00044012815, -0.07431314, 0.0060811266, 0.0027372614, -0.0041099936, 0.014538236, 0.04702749, 0.06308118, 0.087609835, -0.07008363, -0.05168391, -0.009061806, 0.031288482, -0.08302426, -0.048264496, 0.08479712, 0.005863473, 0.073356844, 0.053547256, -0.06267215, 0.038065545, 0.06475348, -0.01805278, -0.058753267, -0.06721741, -0.017106771, -0.07669534, -0.08305557, -0.008567803, -0.024435386, -0.07857508, 0.006454475, -0.041238658, 0.039599456, 0.08535377, -0.053322557, -0.08725431, 0.06742749, 0.054709546, -0.05018557, 0.0060343146, -0.014286771, -0.0699001, -0.08670086, 0.0065889657, -0.03241926, -0.024204902, 0.06139017, 0.021597281, -0.08787189, 0.016248822, 0.012106322, 0.081338145, -0.052950453, 0.012600914, 0.025123544, -0.07405116, -0.010740995, 0.07081764, 0.049696513, 0.034133248, -0.00962048, 0.018313609, 0.033546396, -0.07588115, -0.025922704, 0.0030089393, 0.036253296, -0.047972586, -0.053340606, 0.08823999, 0.079351775, -0.07625961, -0.054831933, 0.06612583, 0.071004845, -0.06626523, 0.07525789, -0.04019137, 0.080388494, -0.02169177, 0.08031332, -0.060161307, -0.020709582, 0.00085403025, -0.047023766, 0.07586867, -0.036617223, -0.0020085573, -0.025501162, 0.038933925, -0.034442805}, {0.003557466, 0.077972315, -0.038116302, 0.07171374, -0.027891971, -0.00577686, 0.07085613, -0.031990457, 0.062251784, 0.0399623, -0.058474198, 0.020962052, 0.040677167, 0.04509703, -0.08312626, 0.038437925, -0.05182218, 0.02955217, 0.056678124, -0.019871019, -0.050876293, -0.04153986, 0.074535795, 0.0053498596, -0.053266693, -0.0761687, -0.006309755, -0.04477585, 0.017723896, 0.06485931, 0.005108483, -0.01980728, 0.033208884, 0.0734987, 0.022893444, -0.0077707544, -0.03524426, 0.011161402, 0.015973277, 0.0656909, -0.034001704, -0.039731055, -0.049607165, -0.011295311, -0.08076277, -0.010899015, 0.06755275, -0.056424715, -0.0119424015, -0.07375295, -0.016347684, -0.07475975, -0.021727428, -0.0020572692, 0.06703397, -0.03440911, 0.0013537705, -0.054186337, 0.070398845, -0.07851967, 0.056316875, -0.053697508, -0.021426186, 0.073765956, 0.007049188, -0.075285934, 0.010292575, 0.07427796, -0.04999808, -0.031130843, 0.04857058, 0.059709273, 0.010653272, -0.011302859, 0.048717447, 0.053841732, 0.08773003, -0.016204558, -0.00066387653, 0.0810212, 0.048832543, -0.009592898, -0.048857618, 0.0716398, 0.0035317764, 0.02456154, 0.066340156, 0.038378187, -0.060118347, -0.068694174, 0.05581943, -0.038721625, -0.076688305, -0.0528206, -0.0024557784, 0.059414603, -0.056190852, -0.048602734, -0.070345804, -0.075592265, -0.025242262, 0.049980693, 0.066906415, 0.017492563, 0.07910397, -0.06533402, 0.00040094554, -0.015507638, 0.043798767, 0.08629479, -0.059730247, 0.009668216, 0.021389663, 0.04465752, -0.08313448, -0.08411441, 0.085826285, 0.022917539, 0.07376336, 0.04496535, -0.036361117, -0.058871895, 0.005887851, 0.04327113, 0.02897507, 0.01733569, 0.0003330335, -0.058151104}, {-0.062083308, -0.061311282, -0.054880653, -0.04510526, -0.047596823, 0.010653995, 0.026578516, 0.0544829, -0.0054807514, -0.011042945, 0.039326377, -0.012092993, 0.070386715, 0.052760728, 0.033445023, -0.0034708977, -0.043378495, -0.0809551, 0.059358664, 0.042218424, -0.088019855, -0.0723764, 0.07096369, 0.04929685, 0.032291092, 0.032028124, 0.08343648, 0.033128664, 0.0081660375, -0.018666089, 0.031829648, -0.03530475, -0.014556743, 0.055028148, -0.07513305, -0.010932885, -0.023682438, -0.06159339, 0.008296125, -0.055324156, 0.016220137, 0.0033031553, 0.048006095, 0.027083747, -0.029524677, -0.07475344, -0.0056321993, -0.07344818, -0.013852879, 0.07631295, -0.05037918, -0.055548567, 0.05765485, 0.06374969, 0.004287325, -0.05676111, -0.052139033, -0.082074456, 0.010530263, -0.036114443, 0.0816169, 0.07267607, -0.016884468, 0.0140698105, -0.05698174, 0.071101315, 0.0030068532, 0.028820597, 0.005415015, 0.0019203797, 0.04914386, 0.04303766, -0.058084033, 0.012085378, 0.07110249, -0.022529721, -0.04502963, -0.076008335, 0.0830204, -0.020802133, 0.072168775, 0.082563885, -0.022505015, 0.066284396, -0.07765738, 0.05619838, -0.07788095, 0.055293076, 0.04740361, -0.065696545, 0.054272898, 0.07625603, -0.041436262, -0.08065767, 0.07555518, 0.07041501, -0.040086024, 0.038128935, 0.011527054, 0.022526018, -0.067215435, -0.06119772, -0.0493371, -0.052851483, 0.0021052957, -0.08720301, -0.076258406, -0.055856742, -0.028059695, 0.06949041, -0.031529635, 0.06673885, -0.04013656, 0.0814124, 0.00022010505, -0.07895, 0.019452117, -0.07675277, 0.07705536, 0.07316961, 0.069287084, 0.040606536, 0.06846621, 0.070578285, 0.0053158253, 0.007862642, 0.037253417, 0.046590023}, {-0.07366401, -0.07298961, 0.016937003, 0.012553923, 0.032567605, 0.049119316, 0.021886699, 0.011861101, 0.0701694, -0.017267913, -0.01346875, 0.082452364, -0.032489225, 0.034949273, 0.080115534, 0.049750008, 0.057634376, -0.04316604, -0.059951223, -0.007180609, 0.04775486, -0.054492038, -0.08662882, 0.07469211, -0.05365968, -0.06545264, 0.045524262, 0.07260939, -0.041671082, 0.07118165, 0.029676884, -0.07050061, -0.07423746, -0.007230513, -0.0026328266, -0.032513004, -0.051224068, 0.042421497, 0.08180357, -0.0020208433, 0.06638191, 0.015056126, 0.033806063, 0.01549802, -0.0035907552, -0.0153143555, -0.08583941, 0.075495385, 0.07472598, 0.054566197, -0.048899416, -0.065636225, 0.063687064, -0.0033856109, 0.07691725, 0.0027768835, -0.023972906, 0.0012776405, -0.08626649, 0.044010736, 0.011221126, 0.018879578, -0.013729587, -0.0029599443, -0.07440087, 0.007449001, 0.026845634, 0.015303738, -0.022900678, -0.06798893, -0.053900246, -0.04447774, -0.084954694, 0.08318093, 0.0493593, 0.053353168, 0.07243813, 0.027626015, -0.07576182, 0.06893555, 0.044003062, 0.0429023, -0.0412719, -0.027317975, 0.020920523, 0.027530901, -0.082850486, 0.070293166, 0.0761858, -6.4224005e-05, 0.063739635, -0.07131844, -0.009645738, 0.0705029, 0.031866834, -0.027293868, 0.08736726, -0.08676391, -0.022660114, 0.015723601, -0.04128389, 0.080275886, 0.02763126, -0.08560421, 0.073371194, -0.05390568, 0.016603783, -0.0094739795, -0.01141566, -0.0760674, -0.052250903, -0.028661195, 0.018456146, 0.08383272, 0.08169288, 0.032710582, 0.062351577, -0.06292633, -0.08416111, -0.08322344, 0.0405662, 0.030279264, -0.06680204, -0.022490568, -0.07913449, 0.08144163, -0.045920994, -0.039729968}, {-0.03238821, -0.07458199, -0.020370007, 0.03236618, 0.084757455, -0.027770568, -0.073888585, -0.009712458, -0.073256925, 0.039112173, 0.040639736, 0.07866127, -0.054981817, -0.039054587, -0.07211185, 0.023320578, -0.0025375113, -0.049102414, -0.057259127, 0.0629149, 0.0446598, 0.0065704435, 0.053044416, 0.074171, -0.0005058646, -0.0805866, 0.0123165175, -0.015030608, -0.08197233, 0.07855102, 0.0009509921, 0.014395237, 0.0023826435, 0.03808663, -0.011779949, 0.022938408, -0.026206456, -0.025630817, -0.05360667, 0.058037646, -0.018875256, 0.020727776, 0.011910111, -0.038011063, 0.0043246225, 0.0550799, -0.039932568, -0.023252957, 0.06368961, -0.07351118, 0.08355866, 0.06996686, 0.0810679, -0.04706412, 0.03349497, -0.037015457, 0.04856307, -0.0032834709, 0.019881845, 0.027094431, 0.028461494, 0.02573321, 0.0013963953, 0.0072818995, 0.019448526, 0.0018860176, 0.060295112, 0.02043628, -0.078289054, -0.05120799, 0.04356099, -0.057653055, 0.06688743, 0.029781245, 0.07121306, -0.0018281117, -0.060636323, 0.07037329, 0.01809775, 0.07861353, -0.035766393, 0.06771954, 0.034209795, 0.040519826, 0.08547611, -0.040298812, -0.007817559, -0.049776576, -0.047999285, 0.0004407838, 0.015477516, -0.03718731, 0.06894282, -0.06291687, -0.05978618, 0.014716521, 0.031922653, -0.06551385, -0.07845453, -0.019416735, 0.020857655, 0.07738482, 0.017123714, 0.017945983, 0.034178235, -0.07214176, -0.020067967, 0.03778643, -0.019462347, -0.03952267, 0.04427073, 0.059712984, 0.02222728, -0.05251017, -0.042020153, -0.060919296, 0.048908167, -0.013767697, 0.057558693, 0.012647688, -0.018417343, 0.014249988, 0.04396849, -0.066151015, 0.015653633, 0.049412556, 0.03188719, -0.03873309}, {0.06928479, -0.02649372, 0.02196505, 0.025040098, -0.008549012, -0.06201031, 0.019308336, 0.05364678, 0.012674756, -0.04703013, -0.008754492, -0.01590103, -0.0583466, 0.083281, -0.025763497, 0.06968219, 0.08520112, -0.013470754, 0.0011754334, 0.026272677, 0.05377484, -0.046510205, 0.026184782, 0.01676526, 0.079436265, -0.04198101, 0.034940645, 0.042462476, -0.02513346, -0.08183532, 0.07843029, 0.025297247, -0.05502993, -0.076547675, -0.080140784, 0.034606807, 0.030567974, 0.07562139, -0.05231543, 0.050010733, -0.027262773, 0.060927607, -0.068196625, -0.04528152, -0.013167098, -0.03516146, 0.018712893, -0.0847315, -0.039400022, -0.0025908798, 0.014326133, -0.0830786, -0.08607215, -0.056586895, 0.041090854, 0.046610646, 0.08565625, 0.069605045, -0.044921312, -0.069948934, 0.032108568, -0.019301452, 0.0014708638, 0.04173211, -0.008027159, -0.06870192, 0.069644295, -0.036619287, 0.04919333, -0.026188556, 0.017862916, -0.060141034, 0.022241406, 0.018148296, -0.050561655, 0.07910406, -0.0664149, -0.08580307, -0.040501952, 0.0805245, 0.026774056, -0.06814183, 0.07806025, -0.017253898, -0.074449666, -0.03947503, -0.005850464, 0.007687852, -0.032409262, 0.014237836, 0.062169947, 0.030333146, -0.031075705, 0.03554205, 0.033690713, -0.017855726, -0.056009557, 0.060524143, 0.028969243, -0.05576131, 0.051068492, 0.08520516, -0.035976414, -0.07223722, -0.006572224, 0.008855663, 0.015123941, 0.022914544, 0.06716732, 0.0069135055, 0.06706644, -0.08065589, 0.07363864, -0.043598987, -0.06322894, 0.05222895, -0.055989083, 0.04155787, -0.0023982376, -0.02206473, 0.03983579, 0.006361775, -0.059151866, 0.017967485, -0.07697407, -0.068394564, -0.04919415, -0.016027562}, {-0.07323366, 0.048480906, 0.03859868, 0.019777916, 0.058050357, 0.01017838, 0.03721323, 0.059578516, -0.021203794, -0.07123108, -0.0022424683, 0.059633873, -0.026111003, 0.02844628, 0.06322148, 0.0008986965, 0.08378992, 0.07695154, -0.05441397, -0.03866099, -0.072956026, 0.0310281, 0.025323786, 0.0025438815, -0.027013887, -0.005807616, -0.06811392, 0.047192715, -0.066746175, -0.03384435, -0.039445855, 0.018443301, 0.056441747, 0.021415636, -0.021746553, 0.060976736, -0.013035692, -0.06221688, 0.06127476, -0.023152761, 0.03981685, -0.039193723, 0.011941716, -0.063063204, -0.034895808, 0.047762804, -0.07011305, 0.0052681044, 0.086142085, -0.044014987, 0.04735855, -0.024852395, 0.05114361, -0.042915333, -0.0088761225, -0.056027196, -0.06635111, 0.05146321, -0.00520204, -0.024178721, -0.052220926, 0.028481245, -0.004090637, 0.053383045, -0.025127351, 0.010301381, 0.025230944, 0.07618227, -0.013947561, -0.0052783415, -0.0037538335, -0.04135671, 0.012414999, 0.013146885, 0.06458899, -0.021262877, 0.05594472, -0.0259992, -0.08239847, 0.04207257, 0.026841782, -0.003220357, -0.003325142, 0.0039371178, -0.081160225, -0.0066546723, 0.056519456, -0.026419267, 0.07816509, -0.08284775, 0.045270957, 0.04713852, 0.024017304, -0.038322527, 0.057937004, -0.049402986, 0.044566788, 0.016840719, 0.014064118, -0.02626754, 0.071010135, 0.06183631, 0.05281665, -0.030011643, -0.022699594, -0.005832985, 0.05902625, 0.031788155, -0.00406152, 0.06347298, -0.058917362, 0.039333276, 0.035599135, 0.0331005, -0.044196334, 0.049515523, -0.064823, -0.041165058, 0.006474681, 0.04750537, -0.02369263, -0.06826394, -0.08046655, -0.067142695, 0.07485085, 0.012046561, 0.015015237, -0.012171648}, {0.07410023, 0.0074659884, 0.001009427, -0.073650055, 0.0883657, 0.021416835, -0.00038662553, -0.03140583, -0.051311173, 0.036985613, 0.021469414, -0.042404134, -0.079704, -0.05514073, 0.012866676, -0.009366907, -0.008036129, -0.005581349, -0.07752416, 0.03560041, -0.028234985, -0.0062199086, 0.041814692, 0.047044687, -0.062218536, -0.07613762, 0.041044302, 0.012273192, 0.035220258, -0.058800396, -0.021614507, -0.05628289, -0.07089336, 0.034386158, 0.08613134, -0.0315067, 0.061550044, -0.039429568, 0.086205, 0.019685328, -0.07460023, 0.0009821728, -0.004522845, -0.0020419955, 0.08549426, 0.08042463, -0.062197283, -0.010711178, -0.04042735, 0.028467923, -0.054844163, 0.023745663, -0.022088595, -0.05403899, 0.039861716, 0.073766716, -0.043516293, 0.010501109, 0.06951911, -0.0041786805, 0.03481491, 0.0747812, -0.0034114644, 0.05127933, 0.03907261, -0.037892345, 0.058257066, -0.03146538, 0.049644716, -0.05961307, -0.0031703785, -0.065709546, 0.0018258616, 0.00031479448, 0.04506164, -0.06118815, 0.01146993, -0.05646131, 0.016661994, -0.03164414, 0.026611887, -0.011909917, 0.059198566, 0.065511025, 0.05718086, 0.05601994, 0.031866968, -0.049778663, 0.04375709, 0.028771512, 0.02027569, -0.0112992, 0.085757025, 0.016677834, 0.007369429, -0.08477593, 0.027089357, -0.0198448, -0.043535996, -0.050565764, -0.036761343, 0.018435366, -0.037766114, 0.05536025, -0.038804203, 0.07076145, 0.07231612, -0.0464787, -0.041175857, 0.056827717, -0.0851033, -0.03716175, 0.01530876, 0.06083723, 0.024546199, -0.06330004, 0.06982667, 0.03158798, 0.034050494, -0.02921179, -0.039359078, 0.01759968, 0.03888174, 0.047068886, 0.03466948, -0.075802095, 0.0686331, -0.03979258}, {0.07768343, 0.026781358, -0.022817314, -0.052734345, -0.08314199, -0.082205474, -0.02544953, -0.028067537, 0.048601918, 0.07761326, -0.055175513, -0.08580818, 0.014615335, -0.03425351, -0.047921523, -0.006724052, 0.026807599, 0.0624971, 0.011610307, 0.0045210943, 0.01790674, -0.010950953, 0.035947174, -0.027555145, -0.05105828, 0.07376223, 0.010068238, 0.022827387, 0.020007633, 0.0065023303, -0.005206652, -0.059877113, 0.052056663, -0.0070148334, -0.06100557, -0.07488155, 0.07818303, 0.032172427, 0.005830869, 0.021735944, -0.061115395, -0.0559937, -0.06655642, 0.010125324, 0.072795965, -0.056577645, -0.025129803, 0.021845512, -0.008041315, -0.085413896, 0.04831066, 0.004234202, 0.018817075, 0.047600545, -0.025468573, 0.048350193, -0.055216808, 0.06658875, 0.037560888, 0.08793522, 0.055290796, 0.052370183, -0.07582348, -0.02171342, 0.05701206, -0.075412706, -0.01708512, -0.021546982, 0.043349423, 0.01126349, 0.045728184, 0.0063522384, -0.06122076, -0.05146949, 0.030200437, 0.0003253296, -0.026054885, -0.07713961, -0.0159498, -0.023917116, -0.024501003, 0.07830254, -0.0066903904, 0.0032709986, 0.079004385, 0.029602483, 0.051253207, 0.061246492, -0.019910738, 0.049634956, 0.064651184, 0.0794094, -0.003072545, 0.06304448, 0.0035466999, -0.0060619786, 0.082109354, 0.00921876, -0.057476543, 0.06377674, 0.025315523, 0.07819376, 0.04996889, -0.07057754, 0.003869556, 0.020311184, -0.0622143, 0.08738599, -0.06468943, -0.05186176, -0.020452783, 0.004013732, 0.063569374, -0.010039821, -0.029501215, -0.06821827, 0.02372361, -0.031829204, 0.08271455, -0.08064026, 0.014180645, -0.08010593, -0.057687603, -0.05326687, -0.041498683, 0.03827434, 0.05093061, 0.019763343}, {0.07900303, 0.048727714, -0.028569821, -0.07350245, 0.02970136, -0.026735336, -0.037641972, -0.0033805966, -0.0004569441, -0.039361298, 0.05178199, 0.075006135, -0.0021643788, 0.05879172, 0.0741952, -0.07448235, 0.018150866, -0.015977852, -0.017633975, 0.08634666, 0.025773063, 0.0688226, 0.07696133, -0.0034993365, -0.06983541, -0.03695995, 0.016058318, -0.00840693, -0.08427916, 0.07146373, -0.05043495, 0.059567027, 0.050015576, 0.08464258, -0.033243, 0.017500289, -0.086715676, -0.02707247, -0.05026747, -0.06501779, 0.031241864, -0.04169045, -0.055578828, -0.039635066, -0.0570142, 0.06701542, 0.06344912, 0.048628964, -0.07085501, 0.05036301, 0.03699357, 0.007658027, 0.073760025, 0.03402435, -0.047281798, 0.010781661, 0.012833834, 0.02722133, 0.06014616, -0.0018757582, 0.01423002, 0.050759368, 0.016084008, -0.056560837, 0.0808991, -0.0439169, -0.08239528, -0.03435298, 0.015935712, 0.047099434, -0.015150867, 0.061907373, -0.0073292702, 0.0018578097, -0.007939689, -0.029128805, -0.07321088, 0.019942306, -0.057383038, -0.041373346, -0.029267393, -0.018777981, 0.008814327, -0.027740277, -0.072653845, -0.06520833, 0.04452131, 0.006191291, 0.05776506, -0.07995976, 0.017907977, -0.030583672, -0.044154692, -0.085946456, 0.011372082, -0.026603732, 0.00046382844, -0.011726759, 0.070249386, -0.07338506, 0.038972043, -0.04546448, -0.03146512, 0.048066564, -0.008710213, -0.01589112, -0.0568811, -0.08755234, 0.039826475, 0.051175646, 0.05695691, -0.01890739, 0.030026697, -0.07129697, -0.03803601, 0.02975279, -0.00032230467, 0.06924487, -0.028656919, -0.07445781, -0.0033449084, -0.067009404, 0.02666565, 0.03107845, 0.084382124, 0.01574909, 0.044513695, -0.076250695}, {0.062340952, 0.017757416, 0.010818444, -0.0427969, -0.020300336, -0.009897903, 0.031162515, 0.020790994, -0.012780443, 0.028141342, -0.020315915, -0.0036563203, -0.06609127, -0.061562963, -0.07826948, -0.073228374, -0.023633763, -0.06651138, 0.0028275028, 0.06699661, -0.08659439, 0.0059041083, -0.054433435, -0.037364233, 0.050663553, -0.04732995, 0.036321476, 0.0580912, -0.08714403, -0.016132317, -0.06207214, 0.019820228, 0.04408019, -0.017110549, 0.07686476, 0.03329835, 0.06853727, -0.047073793, -0.025205389, 0.054919086, 0.026564993, -0.020155616, 0.065851636, -0.048105568, -0.037971433, -0.08473451, 0.045590796, 0.086855166, -0.0012056753, -0.06141413, -0.072130345, -0.039161902, 0.062184088, -0.076808155, 0.026342846, 0.025984578, -0.021572813, 0.0065189153, -0.0038981214, 0.056835793, -0.07533253, 0.027634263, 0.08513638, -0.04242427, 0.0059760213, 0.025960445, -0.005140491, -0.00042646378, -0.063130766, -0.024530403, 0.07184205, 0.057830654, 0.024067104, -0.016000152, 0.052032806, -0.056408793, -0.07013168, 0.05812245, -0.03254627, 0.027658828, -0.015530758, -0.058849715, -0.05876729, 0.06317001, 0.063487224, 0.027574547, -0.031588323, 0.08383977, -0.05136786, 0.0064196587, -0.07768552, -0.016813844, -0.00955081, 0.08469396, -0.06664804, 0.06826522, 0.07876354, -0.013686918, 0.04443934, 0.03574761, -0.0643271, -0.048128583, -0.0021155626, 0.057028495, -0.0006582737, 0.025626056, -0.054611642, 0.036358684, 0.07267212, 0.051511995, -0.04821065, -0.083457775, 0.0846247, 0.011074789, -0.06680752, -0.060425114, -0.016855158, -0.04730052, 0.062273733, -0.0138598755, -0.081239335, -0.052313384, -0.06602354, -0.072968334, -0.051788285, 0.07472525, -0.0497517, -0.06285743}, {0.0126766935, 0.03898216, -0.031334642, -0.0012743548, -0.03276265, 0.07438386, 0.027855456, -0.030469906, -0.02447281, 0.0060424954, 0.08520045, -0.066302106, 0.060455136, -0.08450497, 0.08052736, -0.06671141, -0.06687764, 0.079288445, -0.07377666, 0.0129905045, 0.049121805, 0.057914056, -0.065264955, 0.044527717, 0.066499524, -0.02045773, -0.023208633, -0.0056288987, -0.07399478, -0.048851356, -0.07088595, -0.06244674, -0.05851087, -0.06334888, -0.011693127, 0.07893089, -0.07787536, -0.051087745, 0.040187277, -0.033031706, 0.060863025, 0.056403212, 0.004931085, -0.08544366, -0.07985163, 0.0030128062, -0.025456145, -0.043455686, -0.041736707, 0.026166014, -0.051337842, -0.08537573, -0.059874497, -0.0833621, 0.07925459, -0.037216764, 0.010104746, -0.06877465, 0.04364773, 0.026558548, 0.08410717, -0.0004969537, -0.057699203, -0.07454264, 0.05748876, 0.0024997517, -0.07712161, 0.03454867, -0.084527075, 0.046749793, -0.086521514, 0.061253853, -0.021097027, 0.061276115, 0.0073378384, 0.040381946, -0.08475455, -0.03664621, -0.060526647, 0.038953535, -0.075166814, 0.00855682, -0.019392759, 0.031910747, -0.03315188, 0.037195243, -0.027315658, 0.087907456, -0.01909154, 0.02991286, -0.03444625, -0.08190477, 9.340048e-05, 0.07391802, 0.058364816, 0.00032573938, 0.007152982, 0.053233497, -0.029473037, -0.055746928, -0.0027944297, 0.001856871, 0.001869686, 0.03197088, 0.021513402, 0.049440272, -0.0042498857, 0.04304198, 0.004441604, 0.02144517, 0.076290004, 0.00809779, -0.07904593, 0.08427424, 0.006026387, 0.039600454, -0.06579738, -0.054514736, -0.077126816, -0.06410746, -0.08026946, -0.041853096, -0.05403777, 0.070683725, -0.013295077, -0.029776432, 0.00085388124, -0.048793238}, {-0.0462888, -0.08795644, -0.05729454, -0.0022019595, -0.030662991, 0.084642224, -0.0017729625, -0.04502139, -0.024316132, -0.0055695474, 0.06908744, 0.02336444, -0.03600584, -0.043182038, 0.08083417, -0.07389231, 0.02601026, 0.08441634, 0.06465649, -0.015866525, -0.032569345, -0.029361464, 0.054244168, 0.039216705, -0.050195727, 0.011159293, 0.007059872, -0.0074099526, -0.028870516, 0.06576013, 0.021186419, 0.07417721, 0.016213618, -0.027340058, 0.015903115, -6.482005e-05, 0.01365561, -0.077534534, -0.04182457, 0.08571724, -0.0020144433, -0.007300876, 0.028920822, -0.034109045, 0.05539661, 0.068357386, 0.010447875, -0.06884654, -0.018958703, -0.059170485, -0.013609953, 0.057685457, 0.030404821, 0.018853888, -0.03791116, 0.08537599, 0.050281398, -0.0461304, 0.08280929, -0.035175454, 0.05848422, 0.023258783, -0.016098432, -0.024320513, -0.02486778, 0.022517659, -0.078934796, 0.06571034, -0.0356312, 0.037076734, 0.038503923, -0.012048297, -0.067857035, -0.086178236, -0.03928651, 0.0076101497, 0.08521209, 0.03645739, 0.034732267, -0.024887428, 0.0868626, 0.024825796, -0.07686409, 0.057074435, -0.059721924, -0.07647665, -0.054476876, 0.016225472, -0.016114086, -0.010570735, -0.049313582, -0.060961872, 0.013557576, -0.013553098, -0.015113272, 0.055682607, 0.00062742084, 0.08360975, 2.257526e-06, -0.0383646, 0.010027155, 0.037412487, -0.06928417, 0.081065185, -0.011252828, 0.029360369, 0.00035374612, -0.022378966, 0.08197641, 0.05681228, 0.07380869, -0.05771085, 0.0029987767, -0.017806724, 0.026618972, -0.076923035, 0.0064293444, 0.060913168, 0.068581484, -0.0065993294, 0.036538623, 0.07029066, -0.05242067, 0.068197004, -0.0013887733, -0.02219773, -0.036336947, 0.05099114}, {0.08433462, 0.03475368, -0.026945934, 0.051179178, -0.016555704, 0.017349117, -0.08437153, 0.014538132, -0.010210581, 0.05605913, 0.053590395, 0.036801644, -0.01754453, -0.023199841, 0.009995714, 0.026369028, 0.023251876, 0.0633466, 0.043276556, 0.015845537, 0.03333769, 0.073032625, -0.055136118, 0.0494468, -0.072399646, 0.08285075, -0.03151622, 0.015085392, -0.08327213, 0.052394323, 0.0014773309, 0.056581162, 0.02737151, -0.015644275, -0.044086203, 0.017970458, -0.06126692, -0.028404761, -0.04069194, -0.018600576, -0.017994344, 0.024238609, -0.07196529, -0.040207893, -0.051744413, -0.079773374, -0.0520428, 0.050158434, -0.0564745, -0.042919938, 0.032865077, -0.064808294, -0.03238196, 0.08663871, -0.007916063, -0.049244758, -0.011807531, 0.016603246, 0.011190116, -0.046578094, 0.037300624, -0.060851775, 0.052493952, -0.011307508, -0.020002007, -0.0033396408, -0.05440707, 0.040128358, 0.082498245, 0.005234815, 0.031133816, 0.042983033, -0.006614633, -0.021615751, -0.011199996, -0.01448115, -0.02057568, -0.04856341, 0.011552058, 0.080918156, -0.0018298253, 0.031245768, -0.07473302, 0.038935877, -0.011551775, 0.025481902, 0.0633244, -0.010275468, -0.0088131055, 0.029796608, -0.0014757067, -0.06969807, 0.032924846, 0.085545294, 0.0045994, 0.07815144, 0.024630778, 0.056588314, -0.0556908, -0.04479682, -0.06437896, -0.0109113455, -0.018097296, -0.08473177, -0.08706964, -0.045492508, 0.03407783, 0.029852182, -0.041801233, -0.058454506, -0.062708996, 0.05788567, 0.08613398, 0.046530463, 0.040278412, -0.08247059, 0.033293262, -0.05693529, 0.022094317, -0.078436114, 0.036529966, -0.06595853, 0.008947387, -0.060784858, 0.016062059, -0.036498275, 0.013313986, 0.011847712}, {0.052863456, -0.071572974, 0.038834818, -0.0040054247, -0.063486695, 0.03515002, 0.04727166, 0.043807186, 0.064699166, -0.026517626, 0.017274894, 0.050669007, -0.0776744, -0.03400358, -0.074615, -0.048910942, -0.033862114, 0.025930777, 0.078272365, 0.03026618, 0.058341227, -0.07487261, -0.026510105, -0.085019514, -0.036747195, -0.044422746, 0.06280964, 0.06744831, 0.006263897, 0.032844514, 0.076003246, -0.050393805, 0.07389579, -0.029976409, -0.08612974, 0.08775573, -0.016561218, 0.076151304, -0.08044249, 0.07180124, 0.033056907, 0.08220657, 0.07509411, 0.013696507, 0.079256795, 0.014980443, -0.0489914, -0.08206947, 0.073544495, -0.004904099, 0.074277215, 0.08153031, 0.028432347, -0.0066340268, -0.077242084, -0.021201298, -0.075333685, -0.006581135, 0.04722502, -0.02318678, -0.08262786, -0.08443311, 0.05267372, 0.039216466, -0.020240203, -0.04494289, 0.024968036, -0.0001982972, 0.08310043, -0.07216914, -0.021047875, 0.042826958, -0.07370096, -0.02795948, -0.08176208, -0.059501782, 0.07327718, 0.020681724, 0.05635, 0.0042192787, 0.04020462, 0.087045066, -0.016750865, -0.030913617, -0.06900351, 0.06576458, -0.049569108, 0.077167995, 0.012343578, -0.01391378, 0.0440265, 0.044212468, 0.00731685, 0.027007602, -0.08048635, -0.046929702, -0.03170246, 0.011940658, 0.034919232, 0.0823412, -0.0031921417, 0.012272708, -0.060902387, -0.0062828213, 0.073069744, -0.03813959, 0.009166688, -0.028362941, -0.01768858, -0.058407754, 0.0805101, 0.013278745, 0.014034763, -0.034635182, 0.04496371, 0.05712854, -0.06620006, 0.0852228, -0.08573764, 0.07262608, 0.029915422, 0.023677833, 0.005678341, 0.034407362, 0.07634541, 0.008760832, -0.086731374, 0.044713534}, {0.03062033, 0.06033855, -0.0052063763, 0.07789711, -0.039509054, -0.05037874, -0.008312203, 0.02770812, 0.052541412, -0.053956203, 0.07880481, 0.08020479, 0.033188812, 0.016786993, -0.036682013, -0.026641011, 0.06135676, 0.050265916, 0.07947243, 0.05809597, 0.06296804, 0.028055385, 0.051508583, -0.08834505, 0.032811627, -0.006177835, -0.010623522, 0.010752156, -0.06774175, -0.01411733, -0.059264842, -0.08484465, -0.0062592775, -0.074952476, 0.04309108, 0.052808754, 0.079905726, -0.0143355355, -0.07947294, -0.008415431, 0.06507247, 0.060573064, -0.028866008, -0.06835362, -0.01205872, -0.053944845, 0.017230958, -0.08678488, -0.0102964565, 0.0035542771, -0.0396193, 0.0044026524, 0.032483622, 0.029994309, -0.062953025, -0.040843878, 0.08128921, -0.07130803, 0.036539935, -0.061448976, -0.005607836, 0.013286829, -0.084097795, -0.08630249, -0.07639586, -0.023487605, -0.0088128075, -0.030103449, -0.08759152, 0.08529679, -0.058836125, 0.026212946, 0.018544436, -0.08478456, -0.08548983, 0.023584165, 0.007492751, 0.017741255, 0.015946545, 0.02446118, 0.01991444, -0.0015985668, -0.053068794, 0.012726955, 0.028021261, 0.06921204, 0.050625853, -0.08136424, -0.014667653, 0.04143309, 0.010484979, 0.0070683733, 0.051798932, 0.004701093, -0.026957747, 0.07902057, -0.024711885, -0.08179265, -0.0647529, 0.0728927, 0.045678474, 0.06141337, -0.0012665987, 0.019325078, -0.0852098, 0.052595384, -0.07914176, -0.046146322, -0.070993334, 0.036666684, 0.07568293, 0.02313964, -0.022557087, -0.003859967, -0.01296185, 0.03869926, -0.010434009, -0.011530578, -0.034661874, -0.08225546, -0.010371685, -0.0076668486, -0.06366917, -0.055780552, 0.031962328, 0.083386116, -0.055480212, 0.06998312}, {-0.07437551, -0.038044263, -0.0046497136, 0.055160813, 0.06433489, -0.0039096028, -0.021787673, 0.04650382, -0.021309666, 0.013839506, -0.0747457, 0.03141115, 0.004038334, -0.03728991, 0.010769069, -0.050084796, 0.063769154, -0.03826196, -0.014887981, 0.00033979118, 0.059273742, 0.04558616, -0.012258746, -0.0028133541, 0.06457395, -0.04894798, -0.003990039, -0.012722269, 0.05344651, 0.042957686, 0.00854893, -0.07398901, -0.064620316, 0.052998625, 0.037177704, 0.07813562, 0.06477279, 0.054737262, -0.08479206, -0.003911577, 0.029637389, -0.079249896, 0.08318161, 0.014571674, 0.034477077, 0.056564964, 0.027870454, 0.027448379, 0.0070729256, -0.012125924, 0.07373238, -0.029781122, 0.005498953, 0.025091663, -0.06567986, -0.07371189, -0.017742708, 0.07758818, 0.04489415, -0.0150593445, -0.048002087, 0.0040799975, -0.08541687, -0.025573075, -0.08518275, 0.058840103, -0.03383569, -0.01289662, 0.079977386, 0.06552515, -0.0152644515, -0.0014595017, -0.017076574, -0.0626851, 0.0033203214, -0.069278926, -0.001217708, 0.012094684, 0.079736464, 0.022276081, -0.050819606, -0.015561037, -0.04469452, 0.04407402, -0.07154927, 0.032189004, 0.053250067, 0.043126293, 0.05092057, 0.015394069, 0.015690953, 0.073413156, -0.0833247, -0.044799674, -0.01098606, -0.04231336, 0.015553862, -0.043811966, 0.03645286, 0.009344839, 0.03653563, 0.008001387, 0.0834612, -0.05119526, 0.08563117, -0.029631205, -0.028242465, 0.072239526, -8.4504485e-05, -0.0025392398, -0.048613966, 0.0053559616, -0.033608265, 0.04346364, 0.015589803, 0.03997425, 0.0017220452, -0.027848646, -0.054575175, -0.03117124, -0.015818752, 0.058185853, -0.023012497, -0.031108081, 0.009442896, -0.03873784, 0.030403621, 0.056257196}, {0.01889629, -0.03323911, -0.07541761, 0.07691551, -0.048023563, 0.013299733, 0.008550644, -0.056948517, -0.036537766, 0.06378362, 0.06575135, -0.08195061, 0.057500876, -0.026902322, 0.061627932, 0.061767258, -0.035102077, 0.04668706, 0.05857051, -0.030594807, 0.024728104, 0.0226276, -0.038600486, -0.0311432, 0.034288965, 0.04593914, -0.0017717555, -0.05650708, 0.08551019, 0.038207345, -0.003027685, -0.03414644, 0.0188009, -0.0651699, -0.02465421, 0.005934231, -0.0118031725, 0.030723475, 0.05958175, 0.024912179, 0.020665273, 0.060880713, 0.0790459, 0.012983039, -0.0024037808, 0.018670484, 0.030181758, 0.076741286, -0.052723948, -0.03326132, 0.059433647, 0.061646678, 0.06837735, -0.03874349, -0.02501563, 0.013816893, 0.05088868, -0.04097626, -0.023565054, 0.0430919, -0.06693835, -0.06645359, -0.081024125, 0.07209771, -0.033070143, -0.030761108, 0.07562094, 0.063616164, 0.051763587, -0.03450022, -0.01451385, 0.03587462, 0.03478782, -0.06026385, -0.088141985, -0.07980855, 0.07638792, -0.03852889, 0.07534117, 0.01621151, -0.07934976, 0.066847526, 0.0060761124, -0.024541833, -0.036759544, -0.015108496, -0.08044454, 0.027540773, 0.03756184, -0.064133815, -0.0014559403, -0.010223016, 0.003628157, -0.023997627, -0.07306333, 0.021788158, 0.03413719, 0.014271922, -0.07048477, 0.01038979, 0.056837864, -0.07159314, -0.060501926, 0.030715972, -0.077694744, -0.07304026, 0.069103174, -0.04680517, 0.072402515, -0.021196976, 0.08566926, 0.0031659678, -0.0037191734, -0.053848226, 0.036239736, 0.023684524, 0.056475826, 0.062015243, 0.07723909, 0.08255204, -0.014987074, -0.004994273, 0.053719364, 0.036744364, 0.037093826, -0.024228022, 0.072494365, -0.08491147}, {-0.0362245, 0.008520536, -0.0086416975, 0.05801671, -0.07265654, 0.016836263, -0.021186799, -0.009434119, -0.010421619, -0.0724667, 0.060431994, -0.07538692, -0.08439728, -0.04604795, -0.07396304, -0.005691774, 0.024574213, -0.043843165, 0.021582149, -0.05252813, -0.05787701, -0.008608863, 0.08141587, -0.04504059, 0.06285637, -0.019173369, 0.0826638, -0.05134383, -0.038057383, -0.0021517873, -0.049318586, 0.07952898, -0.08255547, 0.05213376, 0.009017065, -0.06517923, -0.0043829754, -0.017387703, 0.020223856, 0.06776298, 0.08034175, -0.056687333, 0.05507409, 0.075946055, 0.03141626, 0.028943159, 0.004932709, 0.05288226, 0.00701946, -0.013891898, 0.031657606, -0.031169597, 0.036382243, -0.012217879, -0.0365011, -0.038201164, -0.007931776, 0.049372308, -0.008423023, -0.055188254, 0.07087349, -0.049481843, -0.07452864, -0.075093396, -0.03431239, 0.07113596, -0.08553274, 0.072592266, -0.069626704, 0.07889133, 0.05268752, -0.07368892, -0.07132469, 0.04756797, 0.07835322, -0.06449303, -0.042767353, -0.047045503, -0.045255505, -0.009162165, -0.004004322, 0.0025807917, -0.017736249, 0.07032592, 0.03965146, -0.05473607, -0.06577896, -0.009030849, -0.07542569, -0.0019200072, 0.03569586, 0.06850479, -0.06697874, -0.05821231, -0.07023654, 0.056467764, -0.059211567, 0.052273802, 0.013054229, -0.07442214, -0.08436143, 0.012757547, 0.009883992, -0.050543196, 0.06041544, 0.049724378, 0.006722346, -0.028027337, -0.07007323, 0.029606909, 0.041331805, -0.01291915, -0.06452629, 0.039852984, 0.019530848, -0.06558198, -0.046484813, 0.04241433, 0.06442762, 0.021178573, 0.033283755, -0.034538057, -0.08753086, 0.062935345, -0.033504754, -0.027805235, -0.028343722, -0.08468058}, {0.08283947, -0.020372659, -0.07960912, -0.018974967, 0.006423898, 0.0066878945, 0.07132522, 0.01995179, -0.060252324, 0.05590471, 0.021376975, 0.072439425, 0.03383457, -0.0268424, 0.027929075, 0.048040263, 0.07872059, -0.058933884, -0.007973671, -0.033776548, -0.0016160905, 0.013932154, 0.008243442, -0.034300864, -0.03609942, -0.047533352, 0.045857348, -0.0088633895, 0.054831333, -0.075870804, -0.027799957, -0.07591936, -0.05605695, -0.06511841, 0.07319405, 0.056247704, 0.07722651, -0.077805355, -0.041083377, 0.07510912, 0.079838954, 0.07293636, 0.083481245, -0.05929151, -0.06908903, 0.076182224, 0.02843137, 0.0073891208, -0.021689229, -0.016913772, 0.053342737, 0.0066463575, -0.021803252, -0.07329898, 0.02601096, -0.034720056, -0.07012611, 0.00039805472, -0.02792593, 0.04379826, 0.006308615, -0.05549196, -0.04915236, -0.008181557, 0.03373812, 0.064048804, -0.06582249, 0.02668006, 0.083884366, -0.03434787, -0.01634992, -0.031720277, -0.055619426, 0.07480661, 0.055504717, -0.004722461, -0.08771401, 0.032161683, 0.045465566, -0.08305308, -0.011884086, 0.055924825, -0.033109795, -0.011474542, 0.085226916, 0.047525592, -0.068933286, 0.06593119, -0.016353294, -0.011622876, 0.0002927184, -0.048880354, 0.08637955, 0.014343753, -0.0022789612, -0.07685792, -0.08582563, -0.0024726614, 0.07818761, -0.05347414, -0.020154104, -0.0088033825, -0.05828914, 0.016987078, 0.033164747, -0.077414446, 0.08576881, 0.066198714, -0.040793374, 0.079702504, 0.03962279, 0.021670952, -0.04727478, -0.06875511, 0.037020184, 0.055334352, 0.009153776, 0.0056123063, 0.077203, -0.012960546, 0.002762124, 0.08523921, -0.06365795, -0.036994025, 0.043959416, 0.050850295, -0.014915846, 0.044657104}, {0.030333437, 0.06330358, -0.013102189, -0.066111736, -0.020051971, 0.07918275, -0.047785725, 0.06266425, -0.028176032, 0.035774738, 0.027000554, -0.028767299, -0.026111733, -0.023868553, 0.04403416, -0.034113344, 0.031742424, -0.038861502, 0.03229458, 0.035514526, -0.07661386, -0.014996268, 0.0096998215, -0.0617885, -0.066255674, -0.076569065, 0.009969264, 0.011360474, 0.05868856, -0.06343461, -0.020157434, -0.047968235, 0.03253296, 0.02108533, -0.047468446, 0.032910526, -0.02421666, 0.088052146, 0.06374616, 0.005346909, 0.037544943, -0.05909909, 0.08624213, 0.006052211, -0.019304983, -0.031605974, 0.03394784, -0.049392123, -0.073845826, -0.048975617, -0.06379109, 0.07115508, 0.053928472, 0.0713715, -0.07201433, -0.02876376, -0.031066451, -0.04123282, -0.062719464, 0.036466874, -0.0012121573, 0.010556661, -0.02867072, 0.021442577, -0.062770605, 0.047021203, 0.011855021, -0.051087197, -0.059728615, 0.070833154, -0.014275789, 0.071828656, 0.015479602, 0.051301874, 0.016300365, 0.06651809, 0.05559411, 0.06364473, 0.050133534, 0.043187775, 0.061633162, -0.07406955, -0.07006915, -0.04503493, -0.032643136, 0.064685114, 0.06993025, -0.064205304, -0.0029231757, -0.039516494, 0.050535895, 0.052360542, 0.06465558, 0.0028927922, 0.020821758, 0.08472731, -0.07346185, -0.003580004, -0.015171699, -0.05315022, -0.07906898, -0.06894609, 0.033548735, -0.025703505, -0.051638793, -0.04111522, 0.07063369, 0.008386716, -0.024828605, -0.03203114, -0.072405994, 0.086844765, 0.03266722, 0.07161883, -0.081644766, 0.07293915, -0.0850888, -0.0059844404, -0.049072765, 0.024227202, 0.058534153, 0.008258119, -0.07098426, -0.030639715, 0.021969274, 0.082036905, 0.031335235, -0.0023669973}, {-0.011666745, 0.037386872, 0.05391056, 0.04519508, 0.07876281, -0.051918596, -0.030175604, -0.022274926, 0.042384498, -0.063986406, -0.046788745, -0.011730783, 0.076069556, 0.009108447, -0.011665426, 0.06771787, -0.080911286, 0.06519695, -0.039190974, -0.01145412, -0.025441512, -0.0847603, -0.07506571, -0.06356335, 0.050658964, -0.08646391, 0.046292238, -0.05684355, -0.0033419281, -0.020593844, -0.046988983, 0.03420572, 0.008591533, 0.07057489, 0.08353395, -0.03435063, 0.011383876, -0.051707894, 0.037666075, 0.04172901, -0.045532715, 0.01312568, -0.03594652, -0.012568861, -0.060142107, -0.017002694, 0.062621854, 0.08733832, -0.07723057, -0.07824122, -0.06653433, 0.056463443, -0.022269987, 0.028954841, 0.02226653, 0.026279949, -0.07231204, 0.006198749, -0.068035334, -0.0649554, -0.07065041, 0.019683555, 0.05784028, 0.074520014, 0.059175782, 0.086811535, -0.061795887, 0.019109167, -0.061421454, 0.06819614, -0.051064532, -0.044081345, -0.0034009889, -0.056812253, -0.059501223, 0.010297053, 0.0016702265, 0.025292091, 0.06911438, -0.0067440346, 0.02533605, -0.028127752, 0.0036995783, 0.052289136, 0.067203574, -0.030625436, 0.0760062, 0.07410059, 0.039601825, 0.06329133, 0.045115046, -0.027335264, -0.029262103, 0.018693767, -0.043868158, -0.023058392, 0.06303298, 0.07839479, 0.01239372, -0.01618535, 0.062471308, -0.055473577, -0.043363973, -0.067310676, -0.041102123, 0.005175285, 0.061781682, -0.081858136, 0.026019812, 0.06378987, -0.07203692, 0.06711478, 0.0051189736, 0.033506416, 0.066221006, 0.011941053, -0.070150994, -0.029316567, 0.0792507, -0.028494969, 0.051654316, -0.07234821, -0.039360624, -0.08061919, -0.036526144, -0.07646314, 0.020000763, -0.0624175}, {0.021454453, 0.027080327, -0.08729115, 0.055041753, 0.06066712, 0.045453213, 0.05918511, -0.016325295, 0.017038874, 0.012721173, 0.07845489, -0.08561654, -0.024726145, -0.029568322, 0.060991056, -0.08235843, 0.0850225, -0.011353157, 0.012031399, -0.019707888, 0.07796838, -0.074530624, -0.009226978, 0.049809866, -0.00988327, -0.074103475, -0.05591166, -0.037505955, -0.0823059, -0.04403785, -0.048015807, 0.034858137, -0.030243263, 0.012154169, -0.07266435, 0.06252476, -0.03145412, -0.013028741, -0.052750193, 0.08575521, 0.057570882, -0.061190404, 0.009349085, -0.081860065, -0.03248265, -0.056959283, 0.062496386, -0.038029365, 0.02968666, 0.031046182, 0.017553307, -0.017868407, 0.065136485, 0.0567177, -0.05188571, -0.026435588, -0.003534928, 0.08251902, -0.015435085, -0.021883152, -0.00024208426, -0.022744529, 0.0606877, -0.032520235, 0.05107399, -0.06021727, -0.02656442, -0.014666431, -0.08070079, -0.076796465, -0.005095966, 0.038462795, -0.0027319193, 0.032104157, 0.08396033, -0.061696243, -0.04249378, -0.026250627, 0.032150872, -0.07290466, -0.027572364, -0.025387786, 0.05494315, -0.008096516, -0.0008910671, -0.04086158, -0.08299658, -0.0875261, -0.042784255, 0.06755886, -0.017649382, -0.015437484, -0.0021353066, -0.027071256, 0.05054494, 0.035927437, -0.05010491, 0.021933012, -0.03873997, -0.01932767, -0.027619842, 0.05676376, 0.06909426, -0.08073635, -0.017004184, 0.065311186, 0.05159106, 0.04714749, -0.03853461, -0.057970945, 0.07287947, 0.012922995, -0.060910404, -0.0027016848, -0.03738889, -0.03871207, 0.043292485, 0.06058196, -0.07814639, -0.06928163, 0.017878152, -0.080740884, 0.003398098, 0.060833193, 0.055908076, -0.02391003, 0.066318326, 0.044407167}, {-0.001262173, -0.051934462, -0.034463067, 0.08611002, -0.003806822, -0.08425541, 0.06823566, 0.04337869, 0.04983128, -0.032806803, 0.023068212, 0.054407723, 0.032285236, 0.01912707, 0.065075, -0.015576407, 0.08426068, 0.063255824, -0.047552023, 0.08610471, 0.053334184, 0.07158021, -0.050961807, -0.060167998, 0.08381007, 0.0009817556, 0.0052256063, 0.034269795, -0.0059335455, -0.03901657, -0.03005873, 0.049423583, 0.084101014, 0.06006006, -0.057668418, -0.02903685, 0.08156147, -0.02806982, -0.06426914, -0.07054764, 0.052618362, -0.030862842, 0.07222933, -0.043098155, -0.07177818, -0.04549709, -0.042403523, 0.043825097, -0.021599524, -0.055891134, -0.021006167, 0.08777141, -0.018496238, 0.060465448, -0.031355694, 0.014859147, 0.066587485, 0.08294282, -0.06152244, -0.021164514, 0.059564732, 0.010451965, 0.061588563, 0.033760503, -0.03069694, 0.03980703, -0.029247805, -0.037159104, -0.014947988, -0.077831596, 0.07901663, -0.007341124, 0.0052090064, 0.020567305, 0.02072917, -0.0061747655, -0.08123456, 0.038065396, 0.087496154, 0.027217738, -0.024905771, -0.0013483167, 0.066231884, -0.08763066, -0.085065246, -0.024635188, 0.069195054, -0.038698435, 0.019060083, 0.087136514, 0.028096795, 0.067316554, 0.0304946, -0.017772518, 0.07785951, -0.08595, 0.07245015, 0.012407586, 0.053084306, -0.003323257, 0.059024073, 0.019026048, 0.03890518, -0.06380043, -0.036529716, 0.06346529, 0.02055563, -0.013482079, 0.023379982, -0.069355376, 0.05877801, 0.007500924, 0.012633741, 0.03646402, -0.07059623, -0.003334552, 0.003153272, 0.039108105, 0.042333446, 0.016567275, -0.063890375, -0.019806787, 0.06531938, -0.0546845, 0.061138816, -0.047146622, -0.03408535, -0.07870736}, {0.009520814, 0.0134358555, 0.029157303, -0.023992792, -0.031319775, 0.07666532, 0.032827497, -0.00710278, -0.009571351, -0.056567635, -0.0031428784, 0.077253036, -0.05442629, 0.0861874, -0.080971345, -0.05445964, 0.07291476, 0.0119222775, 0.03487189, 0.021377422, -0.0077185333, -0.025870927, -0.06011738, 0.018591926, 0.013979845, 0.039642595, -0.06393362, -0.002644062, 0.020119801, 0.02029968, -0.07411582, -0.0047218055, 0.07280006, 0.075518675, -0.014417648, -0.0462761, -0.03087892, 0.08477753, -0.08160152, -0.04334479, 0.02295775, -0.085228026, 0.028222844, 0.030240059, 0.077225484, -0.0857176, -0.010109544, -0.022138804, -0.029472973, -0.05859492, 0.06988511, -0.012384586, 0.021098323, 0.08288305, 0.027346268, -0.05319713, 0.07413786, 0.055729575, -0.021727227, -0.08108659, -0.03352693, 0.049973197, -0.045187354, -0.027224578, -0.060903154, -0.03972043, -0.07313981, -0.06322074, -0.012830101, 0.07047736, 0.056626298, 0.05909399, 0.036582403, -0.07360484, 0.048577197, -0.0047507808, 0.009641841, 0.0066867247, 0.020810165, 0.016422667, -0.008852504, -0.0050684735, -0.06251289, 0.003320761, -0.013328023, -0.02065657, 0.07180085, -0.07144822, -0.06447431, 0.07238353, -0.07776055, 0.037740104, 0.029334314, 0.08612595, -0.0014425591, -0.014579818, 0.018494256, 0.06261911, 0.021123134, 0.023414314, -0.040444084, 0.05909469, 0.087093644, 0.064113654, 0.06324238, -0.059520535, 0.0070861205, 0.05707585, 0.0659562, 0.07339787, 0.051338367, 0.014795944, -0.04077224, 0.013166614, -0.06068415, -0.06509624, 0.0006725788, -0.07677164, 0.04111611, 0.008890301, 0.07069176, 0.041219182, 0.058353998, 0.0063276514, -0.013715133, -0.038639683, -0.073421866, -0.050830994}, {0.08505041, -0.048506998, 0.055454038, -0.027317144, -0.05388959, -0.03443857, 0.0813831, 0.07590585, 0.08587506, 0.049920358, 0.085529305, 0.022490919, 0.013264731, -0.004921958, 0.052357458, 0.04783293, -0.02783028, 0.07988424, 0.073506944, -0.03391931, 0.020146623, -0.04574223, 0.052698426, 0.04638692, 0.05139848, 0.025207832, -0.07899338, 0.07525667, -0.08001056, -0.08036519, -0.016323946, 0.07849539, 0.020078234, -0.075542465, -0.051032446, -0.05965153, -0.05646842, 0.04719848, 0.014895551, -0.086761475, 0.06823263, 0.03252195, 0.045980863, 0.020128153, 0.030826122, 0.035611935, -0.07038266, -0.07754476, -0.08294602, 0.0151320845, 0.0155837685, 0.023672692, -0.01075457, 0.0660254, -0.06742938, -0.07459559, 0.054199345, 0.06501386, -0.035534926, 0.054970153, 0.064857565, 0.046166472, -0.08532067, -0.031325623, 0.032840602, -0.038705084, -0.06710064, -0.073541306, 0.0695652, 0.074857004, -0.052998353, 0.0077581927, -0.045794994, -0.05261841, 0.0015836433, 0.08442617, 0.037126713, -0.02232384, -0.03188077, -0.034549646, 0.008148864, 0.057256497, 0.047799654, -0.0516998, -0.04000467, 0.074002735, 0.0046229064, 0.06291304, -0.083960906, -0.074545406, -0.07759676, 0.035661206, -0.04248831, 0.07353193, 0.034163363, -0.03195316, 0.069411404, -0.06784185, -0.016628765, -0.06589959, -0.019957006, -0.07727965, -0.04593826, 0.056470387, -0.068293564, 0.08366334, 0.028440543, -0.07465919, -0.03038833, 0.024104469, -0.08166308, 0.06146858, -0.08660933, -0.01928056, 0.06904339, -0.067303784, -0.067481466, -0.032130376, -0.06103818, -0.079354726, 0.07386305, 0.0005552247, -0.08241762, 0.04268063, -0.05914309, -0.06203501, 0.046504535, 0.07542785}, {-0.013793409, 0.06683425, -0.057897672, 0.017768025, -0.04178274, -0.064598866, -0.071065895, -0.029455736, -0.029315863, -0.046070866, 0.047585852, -0.065757915, -0.03995877, -0.073017515, -0.038526636, -0.068491355, 0.016580336, -0.05708843, -0.016406514, -0.06598669, 0.010794416, -0.011945017, -0.03504154, -0.03046057, 0.042898796, -0.084106356, 0.08678234, 0.03279753, -0.08791835, -0.05099556, 0.07277619, 0.029710494, -0.010220565, 0.009643137, 0.050961696, 0.03587389, 0.07906232, 0.05357451, 0.06650885, -0.05753076, 0.06698973, -0.04892634, -0.06659162, 0.0723742, -0.07924987, -0.075649716, 0.049272798, -0.03612338, -0.014435083, 0.06921079, 4.659593e-05, 0.016539603, 0.01913406, -0.046453137, -0.048283122, 0.030251108, -0.08201258, 0.008890212, -0.0032520592, 0.038770027, -0.040880576, 0.046781458, -0.063491605, -0.07258738, 0.0575848, -0.04790082, -0.08825082, 0.08820126, -0.061260782, -0.07999419, -0.03723789, -0.06463612, 0.05764305, -0.07844073, 0.024849601, 0.04269395, 0.015395425, 0.008683041, 0.08280327, 0.08072261, -0.07141749, -0.027406462, 0.07981444, 0.032044336, -0.050699256, 0.07872326, -0.0538801, 0.049652077, 0.013695911, 0.03639607, -0.08522838, 0.064203046, 0.082217745, 0.061355837, -0.004655443, -0.037990727, 0.008816384, -0.07743401, -0.0069458187, 0.075799726, -0.04283091, 0.021673627, 0.05100476, 0.068768464, -0.062376417, 0.0066874325, -0.068144985, 0.038899682, 0.07462952, -0.074604124, -0.07936083, -0.016520225, -0.08451489, -0.08066727, -0.013266332, 0.058946364, 0.055795886, -0.039452568, -0.02678604, 0.031574346, -0.082467765, 0.03257005, -0.048512485, -0.008170493, 0.02483163, -0.065786496, -0.049551237, -0.061204262}, {0.043056555, -0.011859797, -0.06966772, -0.038964137, 0.034829564, 0.048937224, -0.058817074, 0.025122851, 0.08042192, 0.07575073, 0.0006194711, 0.060479738, -0.080069706, 0.08149371, 0.08466431, -0.0507329, -0.073200405, 0.062117092, 0.05999344, 0.058494873, 0.033517852, -0.06822471, 0.07001629, -0.00419569, -0.087890916, 0.06636018, -0.05904454, 0.05977688, 0.06065815, -0.06865478, -0.010678232, 0.03113652, 0.070294805, -0.002151303, 0.05972957, -0.072610795, -0.077013135, -0.051141396, -0.03852183, -0.07835526, -0.055283397, 0.023180433, 0.01339072, -0.010595411, 0.03823883, -0.06020889, 0.0047799125, 0.0848831, -0.061412636, 0.07004205, -0.052080218, 0.082057334, 0.04370282, 0.037510864, -0.035808887, 0.005454205, -0.058944527, -0.051685017, 0.06466899, -0.022804417, 0.034865305, 0.07184423, 0.066117235, -0.0021314397, 0.014070407, 0.01884789, -0.060776547, 0.032338634, -0.072654895, -0.030248981, 0.020457804, 0.027574599, 0.0038030297, -0.0057331845, -0.0054930225, 0.0044501275, 0.031934254, -0.00063755363, 0.03521719, 0.042409398, -0.06990119, -0.0019669905, -0.07495432, -0.027869876, -0.04520337, 0.081888296, -0.055372845, 0.03967338, -0.0008882955, 0.058856286, 0.056233294, 0.014732443, 0.034880966, -0.01575499, -0.038758967, 0.029716238, -0.04220516, 0.024744928, 0.034601644, 0.05276587, 0.077702366, 0.024135076, 0.0061808154, 0.045763217, 0.084270485, -0.033137444, 0.082242735, 0.053399526, 0.060662143, -0.07001793, 0.02897641, -0.04632381, 0.073387496, -0.0044200867, -0.075508446, -0.010452293, -0.074666925, 0.029991433, 0.01833269, 0.027085528, 0.08603933, 0.06870297, 0.01422064, 0.073383115, -0.009915836, 0.062077604, -0.004539214, -0.0018144399}, {0.08671584, 0.085034095, -0.0684275, 0.067257546, -0.06233009, 0.06267958, 0.08017548, -0.025525615, 0.060515545, 0.046211652, -0.08781154, 0.061658747, -0.043797962, -0.0361511, -0.06849898, 0.07549145, -0.016940325, -0.042217042, -0.0021413863, 0.04450702, 0.012462936, 0.013455823, -0.049640253, -0.08506698, 0.060796954, 0.00029867142, -0.012033887, 0.06661319, -0.022833921, -0.04257349, -0.049501747, -0.062231362, 0.0033791438, -0.0025121495, 0.0065875277, -0.061489545, -0.06005895, -0.08630094, 0.04587365, -0.0501426, 0.06389607, -0.08316473, 0.06255963, 0.07672494, 0.00335221, -0.08484406, -0.05460554, 0.008323841, -0.061200954, -0.021833435, 0.028759442, -0.058379896, 0.07637026, 0.045219548, -0.06057777, 0.029291332, 0.027968735, -0.056639496, -0.0422445, 0.003457263, -0.043573193, -0.07063042, 0.06464899, -0.03922032, 0.013963848, 0.07805114, -0.039371036, -0.030260108, 0.03345576, 0.027006656, 0.07416988, -0.03778959, -0.031158458, -0.060598128, -0.034091942, 0.016735293, 0.00986284, -0.03941319, 0.058619685, -0.016136698, -0.06811863, 0.08377155, -0.010229863, 0.014119655, 0.059582435, 0.031493008, 0.011775173, 0.0054323897, 0.029711366, 0.0045900866, 0.009809069, 0.030360773, 0.08348631, 0.02328311, -0.033206902, -0.03366198, -0.011386476, 0.031071924, 0.020661734, -0.00859683, -0.023030743, -0.06088619, 0.06846782, 0.07043227, 0.04687453, 0.086097114, -0.03794135, -0.007813036, 0.07910477, 0.043176584, 0.07777589, 0.035206407, -0.03960924, -0.07038836, -0.07883453, -0.06811027, -0.027110454, 0.010919645, -0.065957814, -0.011790767, 0.07307536, 0.024561599, 0.032719523, -0.059058324, -0.0015827641, 0.08373434, -0.06900549, -0.03580124}, {0.007310748, -0.06862088, -0.010422081, -0.046860468, 0.06621539, 0.038129933, -0.03507051, 0.039748706, 0.063233264, -0.052470613, 0.007844865, 0.06025613, -0.032746866, -0.047258563, 0.0637153, 0.055712186, -0.066653796, 0.043416597, -0.05981566, 0.018746264, -0.07156862, -0.04113271, 0.047332473, 0.037382238, -0.022812784, -0.040726658, 0.073068894, 0.079830654, 0.06361995, 0.06981907, 0.0043495446, 0.050478287, -0.014510393, 0.05827806, 0.0067097023, -0.019353665, -0.06080456, -0.016104214, 0.082331754, -0.00091673434, -0.0041591227, 0.06301861, -0.07573801, 0.058938958, 0.0013107657, -0.06974892, -0.03386595, -0.05860259, 0.009479292, -0.014118701, -0.0830472, -0.056200027, 0.07951664, 0.004361242, 0.04504151, 0.037380345, -0.020287856, 0.058815353, 0.07364368, 0.04378503, -0.034169186, -0.06741558, 0.0075207576, -0.026465923, -0.041166935, 0.04030519, -0.03828405, -0.024871044, 0.08513451, -0.05844827, -0.075952604, 0.082603104, 0.061708815, 0.0651828, -0.085128285, 0.009009391, 0.07184177, 0.02869194, -0.06698564, -0.0076398775, 0.082217254, -0.017296262, -0.0132186115, -0.05437938, -0.047015008, -0.06335862, 0.038806, -0.039223228, -0.0041661933, 0.03213024, 0.0834442, 0.073117234, -0.02828988, -0.07502026, 0.00917425, 0.013722174, 0.050115295, -0.033484723, 0.039504506, 0.013997421, 0.033229217, 0.02221848, -0.010673709, 0.014563039, 0.015596472, 0.01459223, 0.0049678385, -0.06970878, -0.086821556, -0.081654295, -0.023676224, -0.031591635, -0.03548788, -0.03850199, -0.0578053, 0.06247566, 0.0020381063, 0.080327235, -0.0429127, 0.01994808, -0.0005121976, 0.075248964, -0.024444327, 0.050596602, -0.050661985, 0.0376587, 0.0375114, -0.043398473}, {-0.025538616, -0.026005067, -0.025977053, -0.048749845, -0.04427318, -0.028822627, -0.021281838, 0.046226285, -0.039966602, 0.042397477, -0.015802473, -0.07375628, -0.02063436, -0.0059677213, 0.015982285, 0.08277745, -0.008931413, 0.015157953, 0.07795008, -0.030574303, -0.07485357, 0.06738601, 0.027506508, 0.003799051, -0.010150738, -0.023905158, 0.035640113, -0.08222183, 0.07335473, -0.06758792, 0.046955027, 0.024807729, 0.03145264, -0.04790197, 0.08190157, -0.0637264, 0.071574636, -0.08210135, 0.040511988, 0.029543832, -0.039865427, 0.032779016, -0.027804453, 0.019546062, 0.07095709, -0.045654625, 0.081452586, 0.052245192, -0.01911264, 0.03554997, -0.0026712343, -0.07315266, 0.016909137, 0.07794707, 0.033578917, -0.052701093, 0.08422016, 0.012223832, 0.014766693, -0.012239963, 0.05365736, -0.009930827, 0.0027500093, -0.04461953, 0.045569457, -0.020440787, 0.06899511, -0.07141943, 0.011021674, 0.019409321, -0.025723077, -0.037061892, 0.050765507, 0.013948604, 0.0032004118, -0.037859756, -0.008506902, 0.019026734, -0.004298091, -0.036737595, 0.033099733, -0.087727286, -0.0702416, 0.02970852, 0.020530857, -0.056663424, 0.031257555, -0.0597725, 0.07690374, -0.028053217, -0.064443745, -0.00714726, 0.071091525, 0.036354356, -0.014928453, -0.008975722, -0.08095687, 0.031850867, 0.044049777, 0.023044348, -0.01993449, 0.006869167, -0.0738098, -0.0644677, -0.08672364, 0.06405317, 0.05967737, -0.005397938, -0.08249516, 0.05518105, -0.023184948, 0.06754326, 0.045042492, 0.00035507977, 0.07403778, -0.06662828, 0.066238515, 0.052903406, 0.07793503, -0.04734132, 0.08172504, -0.035019077, 0.06635242, 0.042135738, -0.035794947, 0.020023316, 0.006736383, 0.02972743}, {-0.034057233, -0.04798799, -0.034139853, 0.015897982, -0.041367438, -0.045078192, 0.08534335, -0.08091373, -0.015851833, 0.059655897, 0.036795147, -0.047395322, -0.07500103, -0.06368331, 0.08467456, 0.035480313, 0.04991836, -0.024860024, 0.07906435, -0.03400315, -0.032860737, -0.08157651, -0.06697952, 0.04144714, -0.008076146, -0.039644137, -0.010143079, 0.052264534, -0.0378807, 0.0878985, -0.020030469, 0.023163475, -0.04674433, 0.0025357828, -0.06030231, -0.06524837, 0.039164416, -0.08588323, 0.05566948, 0.02427017, 0.037936352, -0.06090444, 0.005674459, 0.07088222, 0.016150728, -0.086106345, -0.0031536594, -0.034529626, 0.046962, -0.08404956, -0.0130335465, 0.06818733, -0.04089058, 0.05004693, 0.07991514, -0.0611041, 0.023945667, -0.057303257, -0.0056046993, -0.019228667, 0.0847005, 0.039602585, 0.01842013, -0.06349003, -0.060958326, 0.032064103, -0.08088386, 0.020066738, -0.03610531, 0.025663272, -0.06027877, -3.736466e-05, -0.08310764, -0.015060514, -0.07593486, 0.043882363, 0.054768182, 0.07665541, 0.04077164, -0.015047647, -0.06784357, 0.005004905, 0.06754499, -0.08389067, 0.021305814, 0.053927697, 0.05029606, 0.066836245, -0.06070914, -0.02019722, 0.027332224, 0.051997922, 0.07742245, 0.020416014, 0.06494721, -0.019946948, -0.07422925, -0.072204955, -0.0339336, -0.03167167, -0.04091382, -0.07932722, 0.06495147, 0.06684782, -0.08611935, 0.039929993, 0.045573704, 0.013227165, 0.0393546, -0.06404705, 0.029253818, -0.019015811, -0.024240725, 0.04540401, 0.0056783706, -0.04734506, -0.009134315, -0.031559452, -0.0695674, -0.036264434, 0.002399817, -0.018283725, -0.04644391, 0.0449161, -0.064440094, 0.06261622, -0.021413125, -0.056163963}, {-0.026688281, -0.0030785874, 0.02308517, -0.07596081, 0.02207908, 0.030226223, 0.015004814, 0.0646318, -0.03603016, -0.048976313, -0.018394075, 0.057879813, 0.041036732, 0.07245543, -0.0049190745, 0.072956316, -0.026417665, 0.08099032, -0.03265658, -0.05054628, -0.05285476, -0.04462618, 0.034095526, -0.08455003, 0.005706936, 0.04086142, 0.006687507, 0.016062416, 0.02672191, -0.0073780343, 0.002792932, 0.06834347, -0.030516002, -0.06322347, -0.06858973, -0.06648217, 0.017789006, 0.024700508, 0.00704138, -0.07795794, -0.04529053, 0.0649815, 0.045117773, -0.068752944, 0.06766654, 0.042030446, 0.012219891, -0.02948504, 0.070544116, 0.04612329, 0.041553967, 0.061832227, 0.044833176, 0.045191027, -0.046241414, -0.044874065, -0.062339433, -0.05977149, 0.044352315, -0.0054586604, -0.065298796, 0.062262885, -0.04070609, 0.04745909, 0.07788741, -0.027710047, 0.028245546, 0.052191533, -0.023693062, 0.00701645, 0.038917623, 0.07178026, -0.057020735, 0.071588136, 0.054578118, -0.084933706, -0.055047765, 0.042596675, -0.0056053624, -0.027687337, 0.013712205, -0.07433504, -0.018429428, 0.030184962, -0.074857965, -0.04862055, 0.07836377, -0.006425321, -0.009696469, 0.053435557, -0.049128946, -0.05894618, 0.018216774, 0.013047412, 0.08227681, -0.052806344, -0.05732725, 0.04472313, -0.0626456, 0.07463858, 0.07477378, -0.053966332, 0.0051699653, -0.06895721, -0.07484522, 0.010798551, -0.025632136, -0.037125442, -0.06456955, -0.039235428, 0.029272735, 0.027300075, -0.068937145, -0.049774013, -0.04529839, 0.054104917, -0.033510737, -0.062002406, -0.0038180947, -0.061460588, 0.086356215, 0.07009464, -0.00969547, 0.027664147, 0.055709906, -0.030149147, 0.07736636, -0.023055032}, {-0.053889886, -0.07619707, -0.08173192, 0.029229805, -0.081000954, -0.014653154, -0.03291773, -0.08075905, -0.054959837, -0.045086063, 0.057330362, 0.025200136, -0.065977335, 0.0058459565, -0.05977191, 0.015146263, 0.08197508, -0.048862305, 0.050448664, -0.07760763, 0.031357072, 0.03467071, -0.02604771, -0.02752344, -0.08038801, 0.067176975, 0.07387438, -0.05476217, -0.034985762, -0.033609394, -0.027607776, 0.03177584, -0.016530998, -0.024963714, -0.048861198, -0.07003412, 0.0019200221, -0.05125185, -0.04004451, 0.088379495, -0.022655606, -0.04514176, -0.07888313, 0.057421826, -0.019334584, 0.076075755, 0.06192019, 0.024775773, 0.054908343, -0.010863446, 0.016653456, 0.045923136, 0.052560695, 0.009678304, -0.0442133, 0.06954106, 0.06514942, -0.08234943, 0.06690026, -0.08538279, 0.045452647, -0.028587185, 0.08252131, -0.043865092, -0.049098033, -0.06507902, -0.07952411, -0.06410072, 0.03775706, -0.0020269454, -0.06466122, 0.012873985, -0.0020559654, -0.052137736, -0.0038824081, 0.08496796, 0.06996507, -0.059318557, 0.032409936, -0.014602095, 0.018825755, -0.04576856, -0.07553097, 0.059671544, -0.05838219, -0.027690165, -0.034462456, 0.07451942, 0.063592814, -0.026010863, -0.053159893, -0.0543419, -0.015446186, -0.07305872, -0.06379522, -0.038533714, 0.051040806, 0.01313737, -0.04031504, -0.045746148, 0.035340205, -0.028925963, 0.012692817, -0.04298651, 0.037014343, 0.0058203638, -0.01577317, 0.05657419, 0.04913, 0.048101477, 0.052034788, -0.0571528, 0.037606902, -0.045942888, 0.025220618, 0.05751788, -0.058015473, -0.05751592, -0.05567042, 0.014945798, 0.06479544, -0.0056864545, -0.030528646, -0.06460452, 0.039970495, -0.019543365, 0.016390719, -0.034365613}, {-0.049147755, 0.009685196, 0.026349738, 0.035396844, -0.052474838, -0.016232409, -0.0055997446, -0.025879376, 0.036902137, 0.034916893, 0.04357911, -0.085491195, -0.011776648, -0.022523612, -0.023944527, 0.013220094, 0.07612962, 0.024310648, 0.078131, 0.041469686, -0.046353746, -0.069046065, 0.01059179, -0.04769588, -0.022853233, 0.005428925, 0.056323253, 0.0739902, 0.026383214, -0.07453073, 0.08759131, -0.071369305, 0.054652534, -0.023362502, -0.049946208, -0.07539753, -0.068994746, -0.074635565, -0.07678211, -0.08766853, 0.08178613, -0.020742215, -0.010688789, 0.042935826, 0.077948086, 0.013214335, -0.049249582, -0.08023667, 0.07659396, -0.046357688, 0.08436691, 0.04527422, 0.06296573, 0.03991217, -0.012856714, -0.06776013, -0.07208463, 0.082227655, 0.08827584, 0.005492881, 0.08791237, 0.016096756, -0.05798673, -0.023390718, -0.045064, -0.043923866, 0.037584074, -0.027970482, -0.05912438, -0.08779221, -0.08615996, 0.06886531, 0.03925673, 0.078750335, 0.019077338, -0.044835765, -0.01482974, 0.001886949, -0.050579865, 0.037238054, 0.045094393, 0.0071520284, 0.031190693, -0.02600056, 0.081302635, 0.059539802, 0.039528005, -0.022703096, -0.047855332, 0.06314691, 0.048098095, 0.012588628, -0.07632735, -0.037405558, 0.0048077255, 0.05173383, 0.04305876, -0.04395633, 0.0006036237, -0.01100257, 0.0057342276, 0.010915883, -0.020934477, 0.08459481, 0.03707785, -0.06981906, -0.022447012, 0.014560327, -0.04695418, -0.0007852167, -0.06794313, -0.01483763, 0.08777922, -0.08547166, 0.020232983, -0.033821, 0.039269246, -0.008983918, 0.059095167, -0.043464538, 0.07719769, 0.04581476, -0.08405514, 0.05693806, 0.009791695, -0.041752037, 0.0414797, -0.03998247}, {0.039096437, -0.023545928, 0.0590368, 0.03338982, 0.07080961, -0.00278949, -0.06471665, -0.009514496, 0.00025044382, -0.015108615, -0.06103501, -0.013733633, 0.007276222, -0.07497717, -0.07538745, -0.042810492, -0.023792855, 0.002299711, -0.079182625, 0.015417568, 0.05055759, -0.009680748, -0.049253725, 0.051954515, 0.046598904, 0.05638369, -0.01610288, 0.0324385, 0.025311448, 0.022897072, 0.031306617, 0.03322926, 0.044314034, -0.028083015, 0.016834639, 0.08208341, 0.014156401, 0.0052302256, 0.041494586, -0.059352033, 0.08149157, 0.06815644, -0.07378771, 0.044998176, -0.029907033, -0.06358298, -0.015648738, -0.037084054, -0.072322324, -0.0015376732, -0.057913676, 0.07414401, -0.028380454, 0.042469613, 0.078021534, 0.04054349, 0.06290088, 0.07212157, 0.017054215, 0.025630385, 0.045468412, 0.08689263, -0.009208128, 0.047536306, 0.06596466, 0.06793667, 0.05733662, -0.07887738, -0.07421149, -0.0849493, 0.011115275, 0.077530555, -0.05773049, 0.031609125, 0.077545114, 0.018298894, 0.07002581, -0.069970794, 0.06782613, -0.0032714382, -0.086912215, 0.063703395, 0.05623018, 0.011987165, 0.069597505, -0.04379264, -0.04953557, -0.030554809, -0.07328711, 0.071810044, -0.045476563, 0.031120218, 0.08651172, 0.049900986, -0.044414412, 0.034739263, 0.07435984, -0.0016970336, 0.08019427, 0.07429492, 0.0042144433, -0.05309663, 0.04750537, 0.013849221, 0.06633284, 0.042367913, -0.049280517, 0.030005887, 0.05396638, 0.0063257366, 0.051529862, 0.07162128, -0.005236186, -0.024929546, -0.045601223, 0.023449339, -0.0177463, 0.03984981, 0.044307597, -0.084045485, -0.049305312, -0.06034138, 0.023031525, 0.057234444, -0.010315642, -0.07590603, -0.0705448, 0.061481677}, {0.06907939, 0.077048026, 0.070245184, -0.069836855, 0.06463381, 0.084668346, -0.020813718, -0.0074405745, -0.021552004, -0.0195968, -0.049327742, -0.08550122, -0.06778242, 0.034024574, 0.01226788, 0.05704195, -0.07166925, 0.077404015, 0.041984297, -0.018921576, 0.07018875, 0.051403396, -0.025810868, 0.060912855, -0.0070899427, 0.012484737, -0.07159814, -0.041229468, 0.05844309, 0.07411789, 0.01173719, 0.024792157, 0.0787069, -0.044589795, 0.037226997, -0.07591697, 0.022863358, 0.04910714, -0.08432235, -0.0810729, 9.383261e-05, -0.002256982, 0.030786514, -0.056270804, -0.0450134, -0.017758757, 0.078752704, -0.0035930574, 0.030879006, 0.03213965, 0.06473597, -0.05396302, -0.01679483, -0.059638612, 0.050944664, 0.07643338, 0.04707692, 0.057087354, 0.0051686913, 0.01966554, -0.0759594, 0.053654633, -0.025924727, -0.021899037, 0.022490941, -0.083207205, 0.014021769, 0.076361485, 0.08150566, -0.059433706, 0.07477548, -0.078973055, 0.033260792, 0.08606317, 0.06996668, -0.07924651, -0.05317532, -0.003241174, -0.00943625, 0.051540293, 0.0784538, 0.047355063, 0.07128533, 0.02880641, -0.060837477, 0.04546278, 0.06213192, 0.0663717, -0.05820091, -0.042514715, -0.08323392, 0.0126180425, -0.03523859, -0.043798625, -0.02610774, -0.06674199, -0.05221597, 0.011309862, -0.08484857, 0.008946829, -0.06360246, -0.0001854226, -0.056994982, -0.035809383, -0.022859313, 0.038800664, 0.0862776, 0.0883038, 0.05949565, 0.0017021298, 0.01710552, 0.04322619, -0.06593772, -0.087562986, -0.07208946, -0.055916864, -0.0005933121, -0.06439413, 0.07757976, -0.06034357, -0.07976177, -0.03798452, -0.051864076, -0.058151647, 0.033416204, 0.028648727, -0.042966824, -0.07884006}, {-0.029591616, 0.07391957, -0.0730607, 0.058698766, -0.07748606, -0.08661934, 0.06044004, -0.07975364, 0.008425847, -0.038399383, 0.07378284, -0.07599601, -0.053341947, 0.03122431, 0.033349544, -0.027876094, -0.081331216, -0.07006069, 0.012893587, 0.017261304, -0.0651147, -0.038629927, 0.048559435, 0.04296761, 0.07656481, -0.06512754, -0.062370908, 0.04702922, -0.028514449, -0.022816762, 0.014871851, 0.05682785, -0.04834075, 0.05900868, -0.051771935, 0.058865108, -0.031536695, 0.03947226, -0.06450215, 0.032502428, 0.0047618374, -0.004474923, 0.076977946, 0.07349596, -0.04172124, 0.04510892, -0.01060161, 0.060680605, -0.02842592, -0.053472906, 0.0204233, 0.06417524, 0.07228308, -0.06289021, -0.0072022825, -0.009218425, -0.006256312, -0.039695196, -0.07387313, 0.05918234, -0.0717262, -0.05751655, 0.052632965, -0.038308356, 0.033559352, 0.0030069426, 0.08606549, -0.052372, 0.0046400204, 0.0034006536, 0.076951556, -0.047078956, 0.039951183, -0.008543327, -0.06623292, -0.067062505, -0.0051278174, 0.068793766, 0.06093975, 0.033798367, 0.013430886, -0.02528932, -0.016130023, 0.06668142, 0.083904095, 0.028110437, 0.07640942, -0.012925044, 0.08449977, 0.06029991, -0.061584257, 0.037532978, -0.078337364, -0.033879492, 0.020615868, 0.040175475, -0.03196199, 0.026035637, 0.08154335, -0.081991695, -0.057790503, 0.07631742, 0.041867815, 0.042852513, 0.010578923, -0.0573738, -0.02652476, 0.046926968, 0.075243466, 0.052593507, -0.024276786, -0.08400992, 0.024820924, -0.022969909, 0.04645654, -0.07199715, 0.020705305, 0.006269224, 0.012671173, -0.06181972, -0.027403817, 0.088074274, -0.0015474036, 0.07166415, 0.05395428, 0.022167988, 0.055558883, 0.0011663437}, {-0.06242477, 0.047652505, -0.037959117, -0.05108905, -0.042847086, 0.045053266, 0.061031364, 0.040693052, 0.0022208542, 0.06650586, -0.0075084493, -0.043233044, -0.0077292547, -0.03865416, -0.04063684, 0.0652949, 0.058453478, 0.06392806, -0.0009929463, -0.087409124, -0.013802305, 0.06491452, -0.05572674, -0.08609156, 0.058996417, -0.06862037, -0.036166716, -0.0813462, 0.002725087, 0.08266423, -0.04171893, 0.05139398, -0.08319701, 0.04709146, -0.080717094, 0.0016032755, 0.036097564, 0.064376555, 0.081026055, 0.07352234, -0.07191565, 0.055981524, -0.038176153, -0.016559802, 0.08055963, 0.02588395, 0.032320984, 0.07323513, -0.037393145, -0.075657345, 0.04612259, 0.085090525, -0.0028437972, -0.01622527, -0.07081382, -0.03518169, 0.0062168166, 0.08087101, 0.060001902, -0.027299874, 0.035457574, -0.044011697, -0.06122902, -0.052570805, 1.3075769e-05, 0.043634005, 0.075658254, -0.030860238, -0.03993894, -0.025973618, -0.08321578, 0.040364303, -0.0065070093, -0.053651262, 0.072195984, -0.050106395, 0.075502224, -0.05297919, -0.057244502, 0.05826246, -0.08470189, -0.037256002, 0.07760047, 0.032723986, 0.04185178, 0.08346645, 0.052891515, -0.07432563, 0.038884483, 0.06418132, -0.026071861, -0.011018217, 0.0019237697, 0.016551994, -0.016206391, 0.034770265, -0.035964694, -0.014863916, -0.05403775, -0.04652366, 0.05019187, 0.056847073, 0.05725964, -0.037970033, 0.00106249, 0.055911846, -0.012347043, 0.07619072, -0.025893718, -0.022549346, 0.064001925, -0.04691367, 0.06739641, -0.055706974, 0.056927703, -0.0710378, -0.08214142, 0.02173274, -0.04303862, 0.05197669, 0.016379423, -0.07403198, -0.03817573, 0.05957661, 0.046554886, -0.04966885, 0.05360674, -0.0632343}, {-0.053427663, -0.034202926, 0.04439325, -0.08060413, 0.030379608, -0.04057791, -0.03369417, -0.057338078, 0.034455426, 0.059317492, -0.01934851, 0.06021384, 0.03576857, 0.07302611, 0.073178746, 0.08088932, -0.056136135, -0.012213565, 0.040790536, 0.04894667, -0.04441719, -0.058586847, 0.031753264, -0.05065361, 0.04833675, 0.037260793, -0.059711926, -0.009933814, -0.0029590055, -0.0730378, -0.08767298, -0.008514516, 0.051679946, 0.065820806, -0.043633692, 0.055020817, -0.017751232, -0.061843716, -0.077476814, 0.013227597, -0.017952941, -0.0678872, 0.06811715, -0.0352987, 0.07276624, -0.021879524, 0.015643649, -0.056142174, 0.038069896, -0.064338446, 0.049393855, -0.07513555, 0.075105436, -0.025531337, 0.02094096, 6.598234e-05, 0.048037313, 0.020248748, 0.014714539, 0.008501008, -0.013465717, 0.06621825, 0.072827704, -0.031183053, 0.07826532, -0.05862619, 0.07887969, -0.03611767, -0.039026167, -0.0012658909, 0.017607339, -0.0019000024, 0.06697249, -0.07195293, 0.058358617, 0.010452762, -0.05359292, 0.06390227, 0.07540662, 0.023010999, 0.05758413, 0.0023107305, -0.00073698163, -0.017156646, -0.058818795, -0.060705557, 0.07339809, -0.042975508, 0.05090501, -0.08041281, 0.038498215, 0.05887214, 0.06550703, 0.04682883, -0.065256625, -0.054925002, 0.030791529, 0.07281142, 0.021687128, -0.026737772, 0.002230242, -0.052681915, 0.049589746, 0.056401573, 0.017136224, -0.023970827, 0.011743315, -0.08463252, 0.029519252, 0.029220872, 0.051637985, -0.021043591, 0.0025092438, -0.04336078, -0.03213242, -0.05450811, -0.065588, 0.08830986, -0.021811381, -0.07172388, -0.0076754764, -0.011853278, 0.05158914, 0.032575898, -0.0491433, -0.06515805, -0.05999178, -0.007343076}, {-0.054904193, 0.008671366, -0.07845025, -0.0694951, -0.0024133176, 0.07839691, 0.038377665, -0.013586521, 0.075617544, -0.07642925, -0.011816777, 0.031040765, 0.029854931, -0.05935595, -0.085181236, 0.085458316, -0.02606003, 0.0015582666, 0.046282522, 0.047922574, 0.054420404, -0.028881624, 0.011275448, -0.05294073, -0.07847701, -0.04980213, -0.077487685, 0.08152544, 0.07255951, 0.043214105, -0.0418779, 0.06849379, 0.029038526, -0.022264645, -0.020869605, -0.071047455, -0.055809908, -0.067883335, 0.031598084, -0.07441847, -0.0037511215, -0.08177272, -0.008583479, -0.07408346, 0.047394656, 0.0079309195, 0.053712614, -0.032411505, 0.05805748, -0.00044701993, 0.08607926, -0.07483558, 0.023265459, 0.032053776, 0.052705027, 0.009339891, 0.06897815, 0.018736005, -0.07337364, -0.021336608, 0.030308023, 0.04312151, -0.067046344, -0.021254867, 0.05562725, 0.00574293, 0.049442627, 0.012271002, 0.067326866, -0.016349174, -0.07546761, -0.06696648, 0.08086025, -0.08709425, -0.04013341, -0.045720983, 0.04665447, 0.06289374, 0.050261132, -0.06755483, -0.06324927, 0.0513319, 0.02835109, 0.023842648, 0.042412944, -0.011462636, 0.03463637, -0.071355835, -0.05126867, 0.05178749, 0.040926777, 0.00975769, -0.04434473, -0.058165178, 0.032276206, 0.02001597, -0.0760627, 0.08651798, -0.02168607, 0.018381335, 0.08641263, -0.051470943, 0.012061998, 0.082062386, 0.012058906, 0.042088456, 0.022683695, -0.07974211, 0.033133104, -0.07764052, -0.006708607, -0.06055382, -0.0019735023, -0.071627945, -0.06619256, -0.025773272, -0.04358398, -0.0512033, 0.017175965, -0.07497496, 1.0155141e-05, 0.0708685, -0.013467826, -0.05404463, 0.08266809, -0.06228536, 0.053038828, 0.066922076}, {-0.051271398, 0.0031946078, -0.016259454, 0.021060802, -0.019120634, -0.043375324, -0.061274476, 0.08310423, 0.082626395, 0.083585106, 0.043168314, -0.051519852, 0.0034612045, 0.03263826, 0.047981106, -0.00054842234, -0.06368232, -0.057522863, 0.0028854012, 0.07363451, -0.086896256, -0.007593617, -0.058138564, -0.070974186, 0.068382986, 0.027651116, 0.04965376, -0.02871805, -0.03357361, -0.012597598, -0.041920844, 0.034518108, 0.026351325, 0.057097472, -0.0837654, -0.00736928, -0.065255366, 0.08386109, -0.071937606, 0.080386885, -0.05172003, -0.03612435, 0.0031363666, 0.06959834, -0.054745626, -0.06733371, -0.07040178, -0.07709976, -0.07927039, 0.07480327, 0.04637251, 0.045462362, -0.03340773, -0.0026411936, -0.024968468, -0.078904234, -0.008558579, 0.043114804, -0.06577088, -0.02049458, -0.0022046268, -0.06044998, -0.0067576393, -0.019484624, 0.0037897155, -0.0105238855, 0.036055766, 0.07335607, -0.010337397, -0.06463578, -0.0046666786, -0.025736436, 0.057789423, -0.08718022, -0.027709015, 0.08254046, -0.038900707, 0.06486317, -0.07553805, 0.026080668, 0.06725166, -0.048026238, 0.027113713, -0.081599414, -0.04144898, 0.07584909, -0.03804658, -0.032807853, 0.032445244, 0.078570895, -0.08653769, 0.059708096, 0.07819141, 0.04909537, -0.059303176, 0.031025983, -0.0634357, -0.023681447, -0.008782096, -0.047753643, -0.07070625, -0.0484437, -0.036289647, 0.042741098, 0.048935957, -0.025962185, 0.029935189, -0.02059438, 0.03486207, -0.07906468, 0.087134965, 0.055696733, 0.055889376, 0.05849763, -0.067618705, 0.060065888, 0.058838822, -0.033199135, -0.062863275, -0.08048879, -0.0288321, -0.041532643, -0.028992858, -0.015198037, -0.019122869, 0.0682824, -0.036256414, -0.04215847}, {-0.035329532, -0.019732669, -0.07521196, -0.024561785, -0.023199871, -0.032724697, 0.067554615, 0.038659625, 0.017614305, 0.05349452, -0.00017691404, -0.004526444, -0.07026985, 0.0016990677, -0.06743372, -0.046609502, -0.055220883, 0.042080514, 0.040372528, 0.031811886, 0.054952465, 0.0031186864, -0.08633297, 0.068575315, 0.010241978, -0.0026333258, 0.012340032, -0.019487374, 0.07584848, 0.032427512, 0.07455317, 0.06754049, -0.02309835, -0.0019228682, 0.08254998, -0.075680904, -0.06816192, 0.034865484, -0.02882212, 0.08680803, -0.03621036, -0.047800153, -0.064950034, 0.062519096, -0.07098833, -0.082368374, 0.06626745, 0.036659755, 0.07259659, 0.03476867, 0.00921344, 0.0044491813, -0.016133003, 0.024394155, -0.03044293, 0.061230697, 0.052805148, 0.033255517, -0.02337838, 0.03812588, -0.042476814, -0.078047775, 0.060527988, -0.04899684, 0.04588788, 0.072823845, 0.052692436, 0.006666757, -0.010673478, 0.06301915, 0.06976686, 0.05634498, -0.04253815, -0.069422066, 0.063101225, -0.00037833303, -0.012352169, -0.026117273, -0.044678017, 0.05043038, 0.06270098, -0.007464394, -0.05182389, -0.026416969, -0.012827247, 0.07455874, 0.06741426, -0.06386423, -0.055152163, 0.02307383, -0.0649957, -0.08110984, -0.08535801, -0.046779104, 0.012538023, 0.02399595, -0.02665786, -0.06423008, -0.072035044, -0.041990295, 0.028438248, -0.004667543, -0.050647605, -0.013602495, -0.031639047, 0.008236371, -0.07342894, 0.013645887, -0.07420665, 0.029919848, 0.06709767, 0.060582377, -0.07339962, -0.0040480644, 0.060099922, -0.037530955, 0.042359464, 0.060094632, -0.07521868, -0.01177305, 0.059306137, -0.054175273, 0.034201697, -0.02962701, -0.07553106, -0.020429738, -0.065394334, 0.028766617}, {0.02918291, -0.034076262, 0.055096082, -0.07749211, -0.04898314, 0.02742201, 0.035191067, 0.06778241, 0.008270025, 0.058098666, 0.012784131, -0.0058177114, -0.08082141, 0.033289373, 0.0038038716, 0.053320803, 0.0027785972, -0.0595072, 0.08067257, -0.02858163, -0.066300854, 0.011590928, 0.021521248, -0.053373586, 0.014514163, 0.024002306, 0.019305691, 0.056718715, 0.056928046, -0.055554338, -0.023029298, -0.079547025, 0.0051694065, -0.025327854, 0.05305355, 0.015407316, 0.026731774, -0.035402205, 0.030580997, 0.011448957, 0.032679655, -0.045693897, 0.0767341, 0.083301, 0.061515592, 0.039455228, -0.035725933, 0.0177496, -0.008378312, 0.04548786, -0.03400969, -0.04159522, 0.069785185, -0.067668915, -0.005766645, -0.035381068, 0.04072421, 0.048409916, -0.015476249, -0.024724424, -0.059307653, -0.05965566, 0.039445914, -0.010665841, -0.054606035, -0.072432086, 0.048009314, 0.024637565, -0.009282105, -0.010435224, -0.05932726, 0.005425565, -0.060098898, 0.043532334, 0.055146985, -0.037593607, -0.055680454, 0.072288476, -0.07958005, -0.003500253, -0.021224298, -0.0769829, -0.056166627, 0.014593221, -0.041525308, -0.054026484, -0.036285065, -0.06847584, -0.04648793, -0.028253742, -0.07891373, 0.02425076, 0.06932918, -0.040643144, -0.033089194, -0.06663189, -0.012932725, -0.07844572, -0.062463902, -0.053846266, 0.080725856, -0.06538556, -0.028862678, 0.04420715, 0.06827424, -0.068602085, -0.067873694, 0.0004891977, 0.05113747, 0.015145883, 0.07165133, -0.04500016, 0.048822753, -0.046301737, 0.029357031, 0.05745419, -0.042041186, 0.07119701, -0.019602202, -0.06415929, 0.031003967, 0.023011886, -0.0021092743, 0.049078934, 0.048072226, 0.026628748, -0.013053887, -0.046233773}, {-0.0068093315, -0.019184478, -0.008822471, 0.0743319, -0.049986698, -0.02579438, 0.080548204, -0.029663984, -0.0882679, 0.043033578, 0.02200669, 0.02930899, -0.0071037263, 0.017864257, -0.057199575, 0.047639377, -0.033787906, 0.073180534, -0.06756295, -0.0140302405, 0.006749183, 0.07345662, 0.025104254, 0.06884653, 0.035786994, 0.025285773, 0.028946057, 0.047056444, 0.007974878, -0.047288816, 0.063136406, -0.069672644, 0.061344944, 0.05916711, 0.009161934, -0.022187449, 0.0046471655, -0.04343275, -0.07108982, 0.06363497, 0.067703746, -0.02084861, -0.07804953, 0.0678648, 0.08354928, -0.024302587, -0.014132492, 0.0022424236, 0.058524586, 0.06291268, 0.05640351, -0.030681461, -0.0089411065, -0.04406477, -0.00058321655, -0.056778327, -0.0019142777, 0.07026415, 0.020857401, -0.056649305, 0.05351486, -0.06568349, -0.0080093, -0.06934927, -0.044945892, 0.07181298, 0.083926536, -0.059657663, 0.04393255, -0.032567944, -0.07576762, 0.03909465, -0.052872643, -0.08127568, -0.0006120354, -0.02663526, 0.024493366, 0.021120556, -0.087829836, 0.037382163, -0.050467342, -0.013326421, -0.0016961768, 0.061059557, 0.0811824, 0.073822744, 0.07398053, 0.07801842, -0.022731818, -0.05750103, -0.069181725, -0.072831735, -0.05415988, -0.071153656, 0.011489324, -0.04848235, -0.0871434, -0.086310685, 0.05010695, 0.04321962, -0.060232893, -0.047033183, 0.004814066, -0.057528708, -0.0837322, -0.07122821, 0.055029847, -0.0128955245, -0.0028733388, -0.0075520426, 0.08161961, -0.048674427, -0.007634394, -0.027613878, 0.0028465018, -0.032425676, -0.06423369, -0.059653457, 0.05488243, 0.05698345, -0.057279073, 0.00559023, 0.06411693, -0.061810598, -0.023854315, -0.021381825, 0.029479034, 0.021485105}, {-0.02567169, 0.06741644, -0.002423942, 0.016001955, -0.0005630478, -0.042345908, -0.045014992, -0.032020845, -0.08120746, -0.033788305, -0.07548314, 0.030216128, 0.030409932, 0.05680289, 0.057207443, -0.06377539, -0.07433595, -0.02125939, -0.057325825, 0.0788, -0.031372532, 0.08447129, -0.0029103383, -0.015851155, -0.026843991, -0.05776021, 0.03831566, 0.03968791, -0.08621435, -0.026647072, -0.008150823, -0.06139114, 0.034579404, -0.014796145, 0.03850142, -0.04732168, 0.013502292, -0.028290156, -0.013699181, 0.068637095, 0.04653523, -0.01885143, -0.0053791627, 0.015266828, 0.05823519, 0.0788741, -0.009497888, 0.014302976, -0.03667648, -0.08560228, -0.01163099, 0.032359086, 0.05702495, -0.02695429, -0.033766475, 0.02084133, -0.024294883, -0.002955377, 0.08352112, -0.076939374, -0.048610255, 0.04171834, 0.034440763, 0.053942777, 0.0018528253, 0.061486073, 0.054479443, -0.06760141, -0.028223068, -0.009387724, 0.078720115, 0.03799822, 0.010038622, 0.046273313, -0.064071976, -0.035198707, 0.06280088, 0.08422864, 0.0010956824, 0.07812353, 0.04561562, 0.07848107, 0.015663683, 0.06513793, -0.051044796, -0.048523307, -0.022555612, 0.06955307, 0.015430011, -0.055460963, -0.07294138, -0.025562115, -0.016838953, 0.017740212, 0.07330019, -0.014436148, -0.0466605, -0.08447868, -0.06680125, -0.044646397, 0.006362468, 0.009579599, 0.017837644, 0.087558694, 0.022211544, -0.020047866, -0.06284617, 0.060358427, 0.009041183, -0.072198, 0.07273405, -0.06256475, -0.018742502, -0.025118455, 0.02990558, -0.002439484, 0.021110438, -0.057229653, 0.072272755, -0.047903202, 0.038070746, 0.017692551, -0.08294251, 0.029867545, -0.005565144, -0.04790889, 0.04969997, -0.07554583}, {0.06759731, 0.08491411, -0.073026, 0.08415342, 0.01147671, -0.046637658, -0.0825697, -0.06936836, -0.009318881, 0.048119284, 0.080570616, -0.03529766, -0.08089234, -0.050659742, -0.06792325, -0.013611637, -0.086989515, 0.015860364, -0.056231134, -0.035852723, -0.04818002, 0.041688807, 0.08768176, 0.077464186, 0.014189318, 0.04396487, 0.03692002, -0.009748116, 0.0068146363, 0.02568943, 0.04292398, 0.06990562, 0.07907028, 0.07018713, -0.04834823, -0.023715831, 0.050859787, 0.01743751, -0.074346885, -0.04480547, -0.031180058, 0.07207774, -0.046859212, 0.032253645, -0.06590764, -0.08506614, 0.043187104, 0.058612205, -0.07292926, 0.017506368, 0.056630366, 0.040283643, 0.006830223, -0.029571284, -0.038475048, -0.015550815, -0.08455701, -0.04010356, -0.005120307, 0.0042775646, 0.031046234, -0.0062709525, 0.038683914, 0.059510536, -0.028014325, 0.0665142, 0.07942959, -0.08298591, -0.026080638, -0.07894785, 0.026144236, -0.06338833, -0.073828064, -0.012859374, -0.024332948, -0.05637455, 0.040740527, 0.035565794, -0.017019138, -0.061999224, -0.043382276, -0.023544587, -0.00386969, 0.05076439, 0.029689834, -0.013285339, 0.033178434, -0.0002957955, 0.03893047, -0.04110406, -0.015197888, 0.044387273, 0.036454655, -0.08175163, 0.08251069, 0.010454737, 0.02052483, 0.0696433, 0.048425637, 0.030362472, -0.03485245, -0.0016383305, 0.07727889, 0.04944562, 0.0555327, 0.041174076, -0.029725865, -0.07867508, -0.08766065, -0.05095337, -0.08463586, -0.06395354, 0.028619342, 0.030607894, 0.06733192, 0.025088325, -0.031079698, -0.04381051, 0.004664868, 0.059283115, -0.023267463, -0.010318652, 0.03054478, -0.008254439, 0.08581204, -0.023178257, 0.02926927, -0.048357323}, {0.052423216, 0.022615194, 0.07741188, 0.0491694, 0.045299135, -0.06756925, -0.06967531, 0.001063183, 0.04120969, -0.009460963, -0.05224384, 0.06518269, 0.023932055, 0.013676122, -0.02708111, 0.06688752, -0.084712744, -0.038399477, 0.008959807, 0.061104797, -0.021873243, -0.032540888, -0.006150909, -0.03815312, -0.007675573, -0.08010432, -0.043695923, -0.010085806, -0.084973104, -0.002185367, 0.068692245, -0.014854319, -0.032191224, 0.014053889, 0.0797754, 0.07866003, 0.07884843, 0.028241515, -0.046131104, 0.0118296, 0.035984464, 0.014182121, 0.06761827, 0.015965998, -0.06497063, 0.04514695, -0.067535035, -0.014286317, -0.07328989, 0.047173016, 0.0544027, -0.017618127, 0.05711668, 0.05130785, 0.084221326, -0.007169865, -0.08195821, -0.04596731, 0.07277729, 0.03327757, -0.059427224, 0.07542766, -0.085223004, -0.005126193, 0.08499772, -0.01907035, 0.010429196, -0.054142356, 0.015854657, 0.061647363, 0.005490057, -0.008571595, 0.042012148, 0.0095721185, -0.049493633, 0.048884027, -0.024569124, 0.058745094, -0.019821718, -0.073574446, 0.059400924, 0.013223648, -0.004849933, -0.025166094, -0.05874848, -0.044923514, -0.03901776, 0.0017750561, 0.054302536, 0.026445955, -0.037012562, -0.083366714, -0.048719257, -0.012124635, 0.03523252, -0.028404575, 0.0857346, 0.04478941, -0.001954615, -0.077226326, 0.028603055, 0.013559677, -0.06438437, 0.052337445, 0.054133542, -0.06362152, 0.077260844, -0.03036537, 0.03799603, -0.0258272, -0.031095967, -0.04820691, 0.06422081, 0.021622524, 0.019177683, 0.07060487, -0.033973996, -0.011216275, 0.04955686, 0.032386526, 0.029032238, 0.077609904, -0.069384634, 0.01063367, -0.053017627, -0.059714213, 0.04128375, -0.05366851}, {0.0068615377, -0.023578778, 0.08525225, 0.04016695, 0.008376487, -0.07599743, -0.008108735, 0.039619483, -0.04303781, 0.04531219, 0.06695748, 0.011249714, -0.0523145, 0.036695115, -0.0031089187, -0.04049291, -0.03513571, 0.04894317, 0.08052584, -0.033375446, -0.0057991818, 0.07033428, 0.031263307, -0.06182444, 0.058776177, -0.07592361, -0.053887285, 0.08111588, 0.074923344, -0.06814557, -0.044661433, 0.08203753, 0.06183002, 0.007786736, 0.073188044, 0.08150535, -0.07538399, 0.076513775, 0.038997926, -0.069740266, -0.008530363, -0.057710417, 0.045125075, 0.0796025, -0.058194418, -0.020356067, -0.06388624, -0.05647195, -0.056950137, -0.0854406, 0.031773612, -0.051245056, 0.06695261, -0.04257622, 0.03727787, 0.01806616, -0.061035052, -0.034519542, 0.059002437, -0.0343518, 0.063968964, -0.030048646, -0.06565428, -0.06372849, 0.021162488, 0.052730538, -0.015233293, -0.057404976, -0.026373442, -0.0511943, -0.03561771, -0.08413841, 0.011117555, 0.0045527965, -0.07688966, -0.054464266, 0.072119586, 0.07683023, 0.05291576, -0.06243805, -0.06167227, 0.03887137, -0.051042687, -0.08466854, 0.03843946, -0.07959926, -0.025071211, 0.02855397, 0.030673184, -0.018516771, 0.016061366, 0.0076612085, -0.01632443, -0.0028546676, -0.03597046, 0.005018443, 0.06553284, -0.03891249, 0.035419688, 0.04620754, -0.06396761, -0.043262832, 0.05618424, -0.04741616, 0.077658124, -0.01646451, -0.07067245, -0.0015337244, 0.071089484, 0.057026617, 0.008795492, 0.014692731, 0.005745724, 0.07129032, -0.043933768, -0.085013166, -0.07871528, -0.029029842, 0.0036086887, -0.087565735, -0.0124121085, 0.061699264, -0.063039765, -0.0011706501, -0.00056794286, 0.05251754, -0.015614808, 0.06882491}, {0.053370096, 0.024660297, -0.016294807, -0.0019551292, -0.0011659712, 0.04882898, -0.039169215, -0.03631973, -0.053198993, 0.06481423, 0.038794853, -0.019560754, -0.045542154, 0.07083521, -0.017078146, -0.0075571164, 0.011838689, -0.084564835, 0.009991668, -0.017781869, -0.032471977, -0.03231125, -0.044476703, -0.04178075, 0.08487045, 0.06402195, -0.014493629, 0.061689116, -0.043276764, 0.081995495, -0.039453022, 0.04011453, -0.07936303, 0.006623797, -0.01904501, -0.022237994, -0.03758877, 0.05555647, -0.022009715, -0.058681443, -0.05719859, 0.07315222, 0.0808991, 0.012633875, -0.07435474, -0.035363577, 0.014100552, 0.024634548, -0.0042184144, 0.025634356, 0.009691492, -0.053204168, -0.019512422, 0.015684478, 0.020872891, 0.075193636, 0.07268997, -0.034264345, 0.026943244, 0.05131372, 0.012411617, 0.04079873, -0.057601757, -0.08015184, -0.04047088, 0.020924568, 0.020080097, 0.071131326, -0.0320329, 0.08077072, -0.016786732, 0.045682304, -0.034627806, -0.027061459, 0.07134362, 0.058213525, 0.08373924, 0.0009385124, -0.051063288, 0.032980874, -0.051098153, -0.014513217, 0.010027818, 0.029725887, 0.05103717, 0.08301961, 0.04323142, 0.077601336, -0.056638326, 0.046272956, 0.014637306, -0.078560024, 0.045680203, 0.06398716, -0.012223236, 0.018292397, -0.04843542, 0.021695398, -0.04808771, -0.069352075, 0.043641277, 0.0026665032, 0.03786332, -0.013211355, 0.0034963265, -0.062771454, -0.019660331, -0.07097823, -0.066840306, 0.065220304, 0.06738762, -0.011620969, 0.030305088, -0.051390946, -0.03272027, -0.0070766956, 0.07405577, 0.08378171, -0.04234221, -0.009915233, 0.08069409, 0.018669143, -0.08388371, 0.075627364, -0.07695637, 0.05505637, 0.07979875, -0.0036699995}, {-0.036605548, -0.034420814, 0.088092335, 0.0049589053, 0.087127425, -0.042695872, -0.014475092, 0.0793074, -0.04098609, -0.008414105, 0.05535739, 0.0035741478, 0.028822325, 0.044724472, -0.00028338283, 0.014002658, -0.07628218, 0.0041608214, 0.05273374, -0.026472066, -0.034252174, 0.01972498, 0.0055382326, 0.017759867, 0.08401006, -0.03169737, -0.065903194, 0.06753314, 0.06850772, 0.019242376, -0.034921825, -0.07805343, 0.028449662, 0.0048466697, 0.03936913, 0.057509474, -0.06353869, -0.012867667, 0.040195294, 0.06778785, 0.08825388, 0.025976442, 0.0695729, -0.06563792, -0.06983198, -0.012704574, -0.017747566, -0.07753457, 0.0010361075, 0.072055005, 0.030539468, -0.006333463, 0.057384096, 0.08679419, -0.025616959, 0.018827312, -0.020517446, -0.022221789, -0.048975438, 0.03126584, -0.061635084, 0.0043643937, -0.03841137, 0.0024149641, 0.027608864, 0.056059055, 0.059493504, -0.032198202, 0.07448997, -0.067505024, 0.063817106, -0.02491083, 0.085395314, -0.07445915, -0.05613093, 0.035041437, -0.01099056, -0.03616369, 0.047407247, -0.042866915, 0.081881694, 0.0047346503, -0.018004894, 0.050895937, -0.018342264, 0.072094865, 0.009374268, 0.0037027076, -0.012725167, -0.06412186, -0.016351692, -0.01879473, -0.015589595, -0.08251588, 0.062296785, 0.019884199, -0.08273303, 0.0061512142, 0.07893369, 0.08484209, -0.07547303, 0.05501794, 0.052606665, -0.063922204, -0.07441776, -0.009506747, 0.07375874, -0.088316485, -0.027912963, -0.086204484, 0.040163226, 0.057451062, -0.032189973, -0.075736776, -0.052176375, -0.0018612817, 0.017241538, 0.012454301, 0.018037647, 0.078575276, -0.021136202, -0.0059766844, 0.054942764, -0.04163768, -0.017418861, 0.066927634, 0.06859545, 0.0037153885}, {0.02524402, -0.07754192, -0.044136316, 0.03560099, 0.039200984, 0.07784396, 0.0017045587, 0.08438227, 0.020915993, 0.038077615, -0.029625207, 0.012193009, -0.08380734, 0.014609501, 0.068242855, -0.034712482, -0.023039393, 0.0054454654, -0.06459376, 0.067283414, 0.014399491, -0.008629441, 0.052504756, 0.074473865, 0.012173161, -0.07609569, -0.0053147525, 0.06425939, 0.035737537, 0.082641564, 0.021514975, 0.032318108, 0.04355017, -0.008833177, 0.05694858, -0.07685424, 0.02126044, 0.077645145, 0.07321227, 0.02294112, -0.03175528, 0.06392988, -0.06269714, -0.07017632, -0.06791988, -0.050780304, 0.057855375, 0.07607772, 0.019165844, -0.049834274, 0.037912033, -1.2516975e-06, -0.01645378, 0.05330161, 0.07138861, 0.017308593, 0.030235536, 0.043054454, 0.0692325, 0.04045149, -0.08678482, -0.06252644, 0.014077269, 0.028850064, -0.038430687, 0.05580706, -0.027172673, -0.03621083, -0.058884572, 0.065592594, 0.036149964, 0.08711868, -0.011581309, -0.027608704, 0.060547628, -0.050437268, 0.03189803, -0.049399383, -0.05265865, 0.056891017, 0.020986803, -0.07360151, 0.07902374, -0.0025998205, -0.0010466725, 0.00888665, 0.020043574, 0.07616069, -0.073619835, -0.010122389, -0.039303474, -0.055723, -0.033422388, -0.031338193, 0.06509525, 0.08319607, -0.027337343, -0.05090612, 0.0748255, 0.02045399, 0.07354919, -0.05004126, 0.018423349, 0.011895411, -0.07937827, -0.06978597, -0.07053688, -0.03550387, 0.087950684, 0.067547284, 0.017433763, 0.029401526, 0.0015557036, 0.0021046996, -0.037644047, 0.07468895, 0.024007015, -0.079544075, -0.020509355, -0.0794447, -0.020818032, -0.04978943, -0.04380308, 0.058084883, 0.08432395, -0.03991609, -0.08386779, 0.009319045}, {0.045479663, -0.0661898, -0.04912645, -0.08138952, 0.058343507, 0.036151595, 0.051002286, -0.048536923, -0.043990962, -0.014230058, 0.023479737, 0.07752352, -0.046079256, -0.05256262, 0.08694928, -0.0033086985, -0.028358158, 0.04891313, -0.0580317, -0.064824134, -0.041550618, 0.07686602, 0.046617635, -0.008883983, -0.087170236, -0.001018092, -0.019605637, -0.030951433, 0.0036201477, 0.020930938, -0.08748331, -0.0073563233, -0.079368405, -0.03033178, -0.050012473, -0.059285916, 0.07222996, -0.008633584, 0.016798034, -0.0827621, -0.054895837, 0.045645885, 0.051767714, 0.0229351, 0.050792567, -0.029472478, 0.07510508, -0.04217302, -0.041629314, 0.08836012, -0.06403114, 0.05183045, 0.04064449, 0.012752816, 0.015483372, -0.017611705, -0.0771126, 0.08747993, 0.077564396, -0.08311231, 0.020407505, -0.088365756, -0.013796687, -0.069478445, -0.07238658, -0.030466449, 0.048877083, -0.037674475, -0.035850488, 0.034592636, 0.021868967, -0.027811512, -0.03760369, -0.045329135, 0.029379219, -0.005000621, -0.07141834, 0.06247116, -0.060402177, 0.005767241, 0.07066249, -0.059952848, -0.073103115, -0.019071922, 0.0034385845, -0.07948967, -0.075805604, 0.014598645, 0.074977584, -0.018204227, -0.012807265, -0.039100863, -0.08156721, -0.052916232, 0.086535715, -0.02103334, -0.016717814, -0.07846493, 0.083768584, 0.0047143176, -0.01827652, 