float tensor_W[1][40][1] = {{{0.087782875}, {-0.16189311}, {-0.014740639}, {0.80034447}, {-0.117007256}, {0.040951338}, {-0.021248413}, {-0.099929884}, {-0.016680133}, {0.6865694}, {-0.0689423}, {0.19903484}, {0.14175993}, {-0.20962507}, {0.5712077}, {-0.12252137}, {-0.16217408}, {0.758922}, {0.13658297}, {-0.11496272}, {0.24866898}, {1.3851262}, {-0.18865721}, {0.4841814}, {0.07482921}, {-0.38331503}, {0.13760756}, {-0.6948143}, {0.21047741}, {0.05309586}, {0.23467782}, {-0.7245126}, {0.0787218}, {0.2859995}, {0.46810642}, {-0.261479}, {0.31768802}, {-0.7579861}, {-0.29871702}, {-0.29447493}}};

float tensor_R[1][40][10] = {{{0.23710538, -0.11651387, 0.07410111, 0.57533234, -0.35939875, -0.6324431, -0.20692305, 0.51135945, -0.55103475, 0.577307}, {0.429014, -1.2974117, 0.050087556, 0.32805026, -0.82448995, -0.795018, 0.06677807, 0.7446329, -0.98721826, 0.3616299}, {0.592146, -0.5854016, 0.149897, -0.06444278, -0.7656216, -1.0696156, 0.44543144, 0.023141047, -0.91644865, 0.08872711}, {-0.27010536, 0.03116577, 0.95549434, 0.46418643, -0.38791844, -1.1278192, 0.3462615, 0.028129842, -0.52590054, 0.71525156}, {0.89727074, -0.7251593, -0.19643378, 0.048149403, -0.29023653, 0.07465551, -0.43341386, 0.41140577, -1.0757462, 0.51004}, {0.66760796, -0.3498804, 0.37154785, -0.096226834, -0.8453756, -0.755967, 0.18888313, -0.28009558, -0.7316318, 0.25435495}, {0.9913333, -0.5198082, 0.8867447, 0.97708577, -0.7633756, -0.90783423, -0.11726432, 0.056761276, -0.84737575, 0.6589126}, {0.5755092, -1.6851516, 0.55128235, 1.0075728, 0.58719355, -0.34525648, -0.23576334, -0.2109608, -0.85885864, 1.1208979}, {0.073750496, 0.19099568, 0.57875764, 0.11892079, -0.3210057, -1.0606607, 0.31629384, 0.6581189, -0.29171276, 0.15107818}, {0.17661674, -0.474815, 0.37284628, -0.10177856, -0.15588221, -1.2113291, 0.52521443, -0.02342909, -0.8282561, 0.31470698}, {0.34500974, 0.1979034, 0.83476, 0.5144897, 0.23259473, -0.8576675, -0.5739044, 0.03141277, -0.2544246, 0.852646}, {0.6804056, -1.1448213, 0.32015795, 1.665273, -0.62869346, -0.4582702, 0.17179212, 0.4757949, -1.3074961, 0.6080259}, {0.5209118, -0.518076, 0.42832267, -0.114055425, -0.6682061, -0.69528854, 0.009610955, 0.31746152, -0.5464618, 0.26869488}, {0.69054806, -0.30193323, 1.173199, 0.3535104, -0.7519228, -1.2546139, -0.32990432, 0.11149312, -0.49970463, 1.2477735}, {1.0869461, 0.049223863, -0.31357175, 0.53651816, -0.7160958, -0.00071136234, -0.1855627, 0.70634234, -0.75926876, -0.3986076}, {1.0113927, 0.30448905, 0.8547342, -0.21300389, -0.97562146, -0.38185695, -0.40838572, 0.18446337, 0.0227751, -0.13956606}, {1.1611385, -0.60160786, 0.91897243, 0.51189494, -0.7328502, -1.6338286, -0.025471494, 0.26061347, -1.4006122, 1.206878}, {1.21908, -0.50330913, -0.26648676, 1.0114713, -0.98381716, -0.2930661, 0.48528826, 0.76335233, -1.2822815, 0.021649469}, {0.40294918, -0.42445397, 0.097041674, 0.16078243, -0.37842745, -0.5578007, 0.37945762, 0.244287, -0.29940876, 0.59000343}, {0.3809475, -0.38405132, 0.9778643, 0.5360365, -0.89352095, -1.3538122, 0.13910317, 0.03324342, -0.77198833, 0.6162235}, {0.32963014, 0.21667722, 0.21907318, 0.40375438, -0.30284554, -0.53284997, -0.562485, 0.034214538, -0.5659733, 0.53842556}, {-0.49349228, -0.450575, 0.6669347, 0.112661146, -0.13061468, -0.6016134, 0.13576108, 0.1374382, -0.34285071, 0.68679446}, {0.35275126, -0.4085929, -0.20362216, 0.16902016, 0.045199227, -0.1520207, 0.138096, 0.45665562, -0.18494405, 0.16440463}, {0.36727625, -0.95882875, 0.527224, 0.078702755, -0.43656525, -0.40867344, 0.46661237, -0.107107654, 0.14763486, -0.0856862}, {0.17487858, 0.14644852, 0.115664825, 0.69249815, -0.4002833, 0.118393674, -0.32710046, -0.41334727, -0.75128, -0.10244341}, {0.11943149, -0.4029442, 0.13558322, 0.4210421, -0.21218558, 0.15201807, -0.16887838, -0.0010593146, -0.0985326, 0.01470363}, {0.061247367, -0.2646226, -0.19663823, 0.13880849, -0.26225963, 0.03567539, -0.18421292, 0.6261889, -0.11116922, -0.06622184}, {-0.23516886, -0.38103017, -0.26024255, 0.616817, -0.19412477, -0.51206994, -0.17842248, 0.27285507, -0.67119807, 0.361286}, {-0.36195967, 0.21321318, -0.32121074, 0.119778946, 0.17027068, -0.12847964, 0.5552458, 0.6930311, -0.29344842, 0.6425191}, {-0.01580866, -0.83515745, -0.2326943, 0.32477474, -0.90414363, -0.50454175, 0.528725, -0.22706161, -0.08869518, 0.029200612}, {-0.34518436, 0.8778296, 0.7932611, -0.18069337, -0.14928615, -0.46471262, -0.42490965, 0.2206822, 0.5853975, 0.15798798}, {0.23534414, 0.31414962, 0.28062505, 0.3061911, -0.2043754, -0.26194474, -0.7326372, -0.533586, -0.017875576, 0.15738487}, {-0.12411381, -0.49253947, -0.13571475, 0.11855583, 0.20976369, 0.18621296, -0.64403, -1.003567, -0.19189268, 0.3405173}, {0.20339315, -1.2375289, -0.5347321, 0.22506437, 0.13844931, 0.5935683, 0.35771912, -0.21314178, -0.058295995, -0.21485297}, {0.12598833, -0.18462498, -0.66897684, -0.20980221, 0.119042024, -0.049153227, 1.0086347, 0.06496591, -0.0152184935, -0.19608158}, {0.13649948, 0.53323853, -0.3943018, -0.35613498, -0.4009585, 0.068258636, 0.54514194, 1.35692, -0.12522972, -0.28766036}, {0.1867666, 0.56502783, 0.10641563, 0.015801912, -0.08045913, -0.71781546, -0.64846224, 0.88052124, 0.14552522, 0.06842296}, {0.52018285, 0.5246679, 0.61024165, 0.47258952, 0.08698826, -0.66155213, -0.8059974, -0.13999982, 0.09704794, 0.15793985}, {0.2557239, -0.55243653, 0.005371404, 0.6995076, 0.03894786, -0.1177427, -0.46442506, -0.7708228, -0.046652075, 0.37956554}, {-0.23922148, -0.7213752, -0.6578751, -0.19071415, 0.27283075, 0.49546757, 0.41636598, -0.57451046, -0.3622285, 0.19792664}}};

float tensor_B[1][80] = {{1.5216659, 1.7376858, 1.6193408, 1.3147851, 1.2584761, 1.7411298, 1.3181566, 1.6506443, 1.8633479, 1.3366249, 1.5290217, 2.2344284, 2.511074, 1.6715214, 1.6841063, 2.2042491, 1.740258, 2.0998478, 2.4376686, 1.9629782, 0.5242094, 0.5480911, 0.3505095, 0.6447415, 0.4354969, 0.6534028, 0.08110497, 0.32715937, 0.65103155, 0.47686702, 0.21699105, -0.24497356, -0.02645656, -0.15695979, -0.049776062, 0.022766639, 0.02060642, -0.03297201, -0.16764364, -0.105513036, 1.3733889, 1.8899702, 1.4831246, 1.1202691, 1.2581898, 1.6229516, 1.6340237, 1.4486446, 1.4751717, 1.7249465, 1.6987069, 2.3611166, 2.5048018, 2.0377612, 1.725095, 1.9952164, 1.8808122, 2.0479503, 2.053065, 2.0585468, 0.5628284, 0.0041716066, 0.7834621, 0.45219773, 0.5931245, 0.6216922, 0.4793795, 0.6422008, 0.32908648, 0.44211692, 0.27842295, 0.13457498, 0.07000211, 0.27008745, -0.13407558, 0.09474077, -0.17198183, 0.44342092, -0.092348576, -0.012851524}};


static float tensor_Y_h[1][1][10] = 
{
  {
    {0.0000000000000000000f, 0.0000000000000000000f, 0.0000000000000000000f, 0.0000000000000000000f, 0.0000000000000000000f, 0.0000000000000000000f, 0.0000000000000000000f, 0.0000000000000000000f, 0.0000000000000000000f, 0.0000000000000000000f}
  }
};
static float tensor_Y_c[1][1][10] = 
{
  {
    {0.0000000000000000000f, 0.0000000000000000000f, 0.0000000000000000000f, 0.0000000000000000000f, 0.0000000000000000000f, 0.0000000000000000000f, 0.0000000000000000000f, 0.0000000000000000000f, 0.0000000000000000000f, 0.0000000000000000000f}
  }
};