0.2371053844690323
-0.11651387065649033
0.07410111278295517
0.5753323435783386
-0.359398752450943
-0.6324430704116821
-0.20692305266857147
0.511359453201294
-0.5510347485542297
0.5773069858551025
0.4290139973163605
-1.2974116802215576
0.05008755624294281
0.32805025577545166
-0.824489951133728
-0.7950180172920227
0.06677807122468948
0.7446328997612
-0.9872182607650757
0.3616299033164978
0.5921459794044495
-0.5854015946388245
0.1498969942331314
-0.06444278359413147
-0.7656216025352478
-1.0696156024932861
0.4454314410686493
0.02314104698598385
-0.9164486527442932
0.08872710913419724
-0.27010536193847656
0.031165769323706627
0.9554943442344666
0.464186429977417
-0.3879184424877167
-1.1278191804885864
0.34626150131225586
0.02812984213232994
-0.5259005427360535
0.7152515649795532
0.8972707390785217
-0.7251592874526978
-0.19643378257751465
0.04814940318465233
-0.29023653268814087
0.07465551048517227
-0.43341386318206787
0.4114057719707489
-1.0757461786270142
0.5100399851799011
0.6676079630851746
-0.3498803973197937
0.3715478479862213
-0.09622683376073837
-0.8453755974769592
-0.7559670209884644
0.18888312578201294
-0.28009557723999023
-0.7316318154335022
0.25435495376586914
0.9913333058357239
-0.5198081731796265
0.8867446780204773
0.9770857691764832
-0.7633755803108215
-0.9078342318534851
-0.11726432293653488
0.056761275976896286
-0.847375750541687
0.6589125990867615
0.5755091905593872
-1.6851515769958496
0.5512823462486267
1.0075727701187134
0.5871935486793518
-0.3452564775943756
-0.2357633411884308
-0.21096080541610718
-0.8588586449623108
1.120897889137268
0.07375049591064453
0.19099567830562592
0.578757643699646
0.11892078816890717
-0.3210057020187378
-1.060660719871521
0.3162938356399536
0.6581189036369324
-0.29171276092529297
0.15107817947864532
0.17661674320697784
-0.4748150110244751
0.3728462755680084
-0.1017785593867302
-0.15588220953941345
-1.2113291025161743
0.525214433670044
-0.023429090157151222
-0.8282560706138611
0.3147069811820984
0.3450097441673279
0.19790339469909668
0.8347600102424622
0.5144897103309631
0.23259472846984863
-0.8576675057411194
-0.5739043951034546
0.031412769109010696
-0.2544246017932892
0.852645993232727
0.6804056167602539
-1.144821286201477
0.3201579451560974
1.6652729511260986
-0.6286934614181519
-0.45827019214630127
0.17179211974143982
0.4757949113845825
-1.3074960708618164
0.6080259084701538
0.5209118127822876
-0.5180760025978088
0.4283226728439331
-0.11405542492866516
-0.6682060956954956
-0.6952885389328003
0.00961095467209816
0.3174615204334259
-0.546461820602417
0.2686948776245117
0.6905480623245239
-0.301933228969574
1.1731990575790405
0.35351040959358215
-0.7519227862358093
-1.2546138763427734
-0.32990431785583496
0.11149311810731888
-0.49970462918281555
1.24777352809906
1.0869461297988892
0.04922386258840561
-0.3135717511177063
0.5365181565284729
-0.7160958051681519
-0.0007113623432815075
-0.18556270003318787
0.706342339515686
-0.7592687606811523
-0.39860761165618896
1.0113927125930786
0.30448904633522034
0.8547341823577881
-0.21300388872623444
-0.9756214618682861
-0.3818569481372833
-0.4083857238292694
0.18446336686611176
0.02277510054409504
-0.1395660638809204
1.1611385345458984
-0.6016078591346741
0.9189724326133728
0.511894941329956
-0.732850193977356
-1.6338286399841309
-0.02547149360179901
0.26061347126960754
-1.400612235069275
1.2068779468536377
1.2190799713134766
-0.5033091306686401
-0.2664867639541626
1.0114712715148926
-0.9838171601295471
-0.2930661141872406
0.48528826236724854
0.7633523344993591
-1.282281517982483
0.021649468690156937
0.40294918417930603
-0.4244539737701416
0.09704167395830154
0.16078242659568787
-0.3784274458885193
-0.5578007102012634
0.37945762276649475
0.24428699910640717
-0.29940876364707947
0.5900034308433533
0.3809475004673004
-0.3840513229370117
0.9778643250465393
0.536036491394043
-0.8935209512710571
-1.3538122177124023
0.13910317420959473
0.03324342146515846
-0.7719883322715759
0.6162235140800476
0.32963013648986816
0.2166772186756134
0.21907317638397217
0.4037543833255768
-0.3028455376625061
-0.5328499674797058
-0.5624849796295166
0.03421453759074211
-0.5659732818603516
0.5384255647659302
-0.4934922754764557
-0.45057499408721924
0.6669347286224365
0.11266114562749863
-0.13061468303203583
-0.6016134023666382
0.1357610821723938
0.13743819296360016
-0.3428507149219513
0.6867944598197937
0.3527512550354004
-0.40859290957450867
-0.20362216234207153
0.1690201610326767
0.04519922658801079
-0.15202069282531738
0.13809600472450256
0.4566556215286255
-0.1849440485239029
0.16440463066101074
0.36727625131607056
-0.9588287472724915
0.5272240042686462
0.07870275527238846
-0.43656525015830994
-0.4086734354496002
0.4666123688220978
-0.10710765421390533
0.1476348638534546
-0.08568619936704636
0.1748785823583603
0.1464485228061676
0.11566482484340668
0.6924981474876404
-0.4002833068370819
0.118393674492836
-0.3271004557609558
-0.4133472740650177
-0.7512800097465515
-0.10244341194629669
0.11943148821592331
-0.4029442071914673
0.13558322191238403
0.4210421144962311
-0.2121855765581131
0.15201807022094727
-0.16887837648391724
-0.0010593145852908492
-0.09853260219097137
0.014703629538416862
0.06124736741185188
-0.26462259888648987
-0.19663822650909424
0.1388084888458252
-0.2622596323490143
0.03567539155483246
-0.18421292304992676
0.6261888742446899
-0.11116921901702881
-0.06622184067964554
-0.23516885936260223
-0.3810301721096039
-0.2602425515651703
0.6168169975280762
-0.19412477314472198
-0.5120699405670166
-0.1784224808216095
0.27285507321357727
-0.6711980700492859
0.3612860143184662
-0.36195966601371765
0.21321317553520203
-0.32121074199676514
0.11977894604206085
0.17027068138122559
-0.12847964465618134
0.5552458167076111
0.6930310726165771
-0.29344841837882996
0.6425191164016724
-0.01580866053700447
-0.8351574540138245
-0.23269429802894592
0.32477474212646484
-0.9041436314582825
-0.5045417547225952
0.5287250280380249
-0.22706161439418793
-0.08869518339633942
0.029200611636042595
-0.3451843559741974
0.8778296113014221
0.7932611107826233
-0.1806933730840683
-0.149286150932312
-0.46471261978149414
-0.42490965127944946
0.22068220376968384
0.585397481918335
0.15798798203468323
0.23534414172172546
0.3141496181488037
0.28062504529953003
0.306191086769104
-0.20437540113925934
-0.2619447410106659
-0.7326372265815735
-0.5335860252380371
-0.01787557639181614
0.15738487243652344
-0.12411381304264069
-0.4925394654273987
-0.13571475446224213
0.11855582892894745
0.20976369082927704
0.186212956905365
-0.644029974937439
-1.0035669803619385
-0.19189268350601196
0.3405173122882843
0.2033931463956833
-1.237528920173645
-0.5347321033477783
0.22506436705589294
0.1384493112564087
0.5935683250427246
0.3577191233634949
-0.2131417840719223
-0.058295994997024536
-0.214852973818779
0.12598833441734314
-0.18462498486042023
-0.6689768433570862
-0.20980221033096313
0.11904202401638031
-0.04915322735905647
1.0086346864700317
0.06496591120958328
-0.015218493528664112
-0.19608157873153687
0.13649947941303253
0.5332385301589966
-0.39430180191993713
-0.35613498091697693
-0.40095850825309753
0.06825863569974899
0.5451419353485107
1.3569200038909912
-0.12522971630096436
-0.2876603603363037
0.1867665946483612
0.5650278329849243
0.10641562938690186
0.015801912173628807
-0.08045913279056549
-0.7178154587745667
-0.6484622359275818
0.8805212378501892
0.14552521705627441
0.06842295825481415
0.5201828479766846
0.5246679186820984
0.6102416515350342
0.47258952260017395
0.08698826283216476
-0.6615521311759949
-0.805997371673584
-0.13999982178211212
0.09704793989658356
0.1579398512840271
0.25572389364242554
-0.5524365305900574
0.005371403880417347
0.6995075941085815
0.03894786164164543
-0.11774270236492157
-0.46442505717277527
-0.7708228230476379
-0.04665207490324974
0.3795655369758606
-0.2392214834690094
-0.7213752269744873
-0.657875120639801
-0.19071415066719055
0.2728307545185089
0.49546757340431213
0.41636598110198975
-0.5745104551315308
-0.36222851276397705
0.19792664051055908
